{"learner":{"attributes":{"scikit_learn":"{\"_estimator_type\": \"regressor\"}"},"feature_names":["temperature_2m_mean","precipitation_sum","wind_speed_10m_max","wind_direction_10m_dominant"],"feature_types":["float","float","float","float"],"gradient_booster":{"model":{"cats":{"enc":[],"feature_segments":[],"sorted_idx":[]},"gbtree_model_param":{"num_parallel_tree":"1","num_trees":"100"},"iteration_indptr":[0,1,2,3,4,5,6,7,8,9,10,11,12,13,14,15,16,17,18,19,20,21,22,23,24,25,26,27,28,29,30,31,32,33,34,35,36,37,38,39,40,41,42,43,44,45,46,47,48,49,50,51,52,53,54,55,56,57,58,59,60,61,62,63,64,65,66,67,68,69,70,71,72,73,74,75,76,77,78,79,80,81,82,83,84,85,86,87,88,89,90,91,92,93,94,95,96,97,98,99,100],"tree_info":[0,0,0,0,0,0,0,0,0,0,0,0,0,0,0,0,0,0,0,0,0,0,0,0,0,0,0,0,0,0,0,0,0,0,0,0,0,0,0,0,0,0,0,0,0,0,0,0,0,0,0,0,0,0,0,0,0,0,0,0,0,0,0,0,0,0,0,0,0,0,0,0,0,0,0,0,0,0,0,0,0,0,0,0,0,0,0,0,0,0,0,0,0,0,0,0,0,0,0,0],"trees":[{"base_weights":[-9.857099E-9,1.7394472E0,-1.1509218E0,3.932306E0,-3.826127E-1,3.0141267E-1,-2.0543473E0,4.843148E0,1.0996104E0,-8.7993795E-1,8.878826E-1,2.1352372E0,-9.3921447E-1,-1.7003236E0,-2.9141958E0,5.6161065E0,3.0053973E0,-1.6042765E0,2.2493894E0,-1.5525298E0,-3.1833E-1,2.1938899E-1,2.0293944E0,4.035432E0,1.1835299E0,-1.0655669E0,1.246916E0,-1.0948788E0,-2.1142805E0,-8.630564E-1,-2.9872131E0,1.5295222E0,6.397528E0,4.434484E0,1.3732941E0,-2.0807748E0,5.3089863E-1,3.8649154E0,-2.4419272E-1,-2.084699E0,-4.3688065E-1,6.0161155E-1,-1.0183011E0,-7.254531E-1,8.329513E-1,2.8008764E0,1.5198203E0,1.5874228E0,4.5989614E0,2.2738993E0,-6.618798E-1,8.591627E-1,-1.1968968E0,4.8608962E-1,3.7882862E0,-5.5746967E-1,-1.6769048E0,-2.222395E0,-2.4773176E-1,-1.5472163E0,7.941573E-1,-3.0082614E0,3.0965725E-1,1.4700955E0,2.7239126E-1,2.076302E0,4.6682337E-1,1.1691954E0,3.7338765E0,5.8486414E-1,4.2001884E-2,-6.5206754E-1,6.365726E-2,8.138764E-1,-2.653484E-1,-6.283155E-2,1.4055067E0,2.8590816E-1,-4.993731E-1,-6.867115E-1,-2.4533015E-1,-2.6026082E-1,5.9590024E-1,3.0806735E-1,-3.5708013E-1,-1.0333394E-1,-5.21476E-1,-1.0176669E-2,-5.1327944E-1,4.9651828E-1,5.2470695E-2,5.6025666E-1,-1.225998E-1,1.2380954E0,-2.8516931E-2,1.26166E0,4.0536575E0,1.1196349E0,5.201216E-1,-3.207147E-1,3.1919503E-1,4.579431E-1,-6.5751415E-1,-3.822029E-1,3.9283514E-1,4.3616846E-1,-2.4830185E-1,1.3308762E0,2.7665728E-1,1.5792655E-2,-4.677318E-1,-2.7764803E-1,-6.2992644E-1,-6.74356E-1,9.7265726E-1,-4.399937E-1,5.749002E-1,-6.5630186E-1,1.3887635E-1,-9.148162E-1,-4.841649E-1],"categories":[],"categories_nodes":[],"categories_segments":[],"categories_sizes":[],"default_left":[0,0,0,0,0,0,0,0,0,0,0,0,0,0,0,0,0,0,0,0,0,0,0,0,0,0,0,0,0,0,0,0,0,0,0,0,0,0,0,0,0,0,0,0,0,0,0,0,0,0,0,0,0,0,0,0,0,0,0,0,0,0,0,0,0,0,0,0,0,0,0,0,0,0,0,0,0,0,0,0,0,0,0,0,0,0,0,0,0,0,0,0,0,0,0,0,0,0,0,0,0,0,0,0,0,0,0,0,0,0,0,0,0,0,0,0,0,0,0,0,0],"id":0,"left_children":[1,3,5,7,9,11,13,15,17,19,21,23,25,27,29,31,33,35,37,39,41,43,45,47,49,51,53,55,57,59,61,63,65,67,69,71,73,75,77,79,81,83,85,87,89,-1,91,93,95,97,99,101,103,105,107,109,111,113,115,117,-1,119,-1,-1,-1,-1,-1,-1,-1,-1,-1,-1,-1,-1,-1,-1,-1,-1,-1,-1,-1,-1,-1,-1,-1,-1,-1,-1,-1,-1,-1,-1,-1,-1,-1,-1,-1,-1,-1,-1,-1,-1,-1,-1,-1,-1,-1,-1,-1,-1,-1,-1,-1,-1,-1,-1,-1,-1,-1,-1,-1],"loss_changes":[4.6505713E3,4.305879E3,1.8349011E3,1.1686372E3,2.983824E2,1.2237301E3,2.574436E2,4.717754E2,3.5180243E2,1.2755722E2,1.0104617E2,3.8765314E2,8.9996216E1,1.5132031E2,3.4864258E1,7.5981055E2,2.3648157E2,3.5696526E1,3.1919104E2,9.052118E1,1.2038407E2,4.9880424E1,1.6825645E2,9.202527E1,2.9528308E2,7.7871796E1,3.29623E1,7.7574524E1,7.2703E1,2.8111479E1,2.349414E1,7.935556E1,5.0117773E2,1.8819373E2,3.5261345E1,6.41819E0,2.4018505E1,1.6136859E2,5.600278E1,2.5052032E1,5.4945312E1,6.2948265E1,5.082644E1,2.3112572E1,2.7841923E1,0E0,3.227848E1,6.4483696E1,1.4656372E2,6.599527E1,3.9786957E1,4.4063473E1,5.675058E1,2.0275343E1,3.3374748E0,8.074861E1,3.6184814E1,5.500598E1,5.8204582E1,1.2599369E1,0E0,8.841309E0,0E0,0E0,0E0,0E0,0E0,0E0,0E0,0E0,0E0,0E0,0E0,0E0,0E0,0E0,0E0,0E0,0E0,0E0,0E0,0E0,0E0,0E0,0E0,0E0,0E0,0E0,0E0,0E0,0E0,0E0,0E0,0E0,0E0,0E0,0E0,0E0,0E0,0E0,0E0,0E0,0E0,0E0,0E0,0E0,0E0,0E0,0E0,0E0,0E0,0E0,0E0,0E0,0E0,0E0,0E0,0E0,0E0,0E0,0E0],"parents":[2147483647,0,0,1,1,2,2,3,3,4,4,5,5,6,6,7,7,8,8,9,9,10,10,11,11,12,12,13,13,14,14,15,15,16,16,17,17,18,18,19,19,20,20,21,21,22,22,23,23,24,24,25,25,26,26,27,27,28,28,29,29,30,30,31,31,32,32,33,33,34,34,35,35,36,36,37,37,38,38,39,39,40,40,41,41,42,42,43,43,44,44,46,46,47,47,48,48,49,49,50,50,51,51,52,52,53,53,54,54,55,55,56,56,57,57,58,58,59,59,61,61],"right_children":[2,4,6,8,10,12,14,16,18,20,22,24,26,28,30,32,34,36,38,40,42,44,46,48,50,52,54,56,58,60,62,64,66,68,70,72,74,76,78,80,82,84,86,88,90,-1,92,94,96,98,100,102,104,106,108,110,112,114,116,118,-1,120,-1,-1,-1,-1,-1,-1,-1,-1,-1,-1,-1,-1,-1,-1,-1,-1,-1,-1,-1,-1,-1,-1,-1,-1,-1,-1,-1,-1,-1,-1,-1,-1,-1,-1,-1,-1,-1,-1,-1,-1,-1,-1,-1,-1,-1,-1,-1,-1,-1,-1,-1,-1,-1,-1,-1,-1,-1,-1,-1],"split_conditions":[1.9866515E2,9.714584E0,1.6179987E1,1.7518356E1,2.0793747E1,8.672917E0,2.4798223E1,1.42696E2,6.946715E1,9.52049E1,1E-1,1.1298495E1,2.1870834E1,9.064582E0,2.1053113E2,2.9372507E1,1.2979984E1,3.6E0,1.3478487E2,1.7647917E1,1.4743751E1,2.2900003E1,9.220499E0,2.166562E2,2.777817E2,2.0952704E2,1.5833861E1,9.000001E-1,2.2137499E1,2.0952704E2,2.64E1,4.077723E0,8.358333E0,9.064582E0,1.5226764E1,2.6499153E1,1.8844202E1,-3.4895833E0,1.9171478E1,1.0000001E0,9.000001E-1,1.9171478E1,1.4512064E1,2.2031248E1,1.3708391E1,2.8008764E0,1.8681883E1,1.7604165E0,3.4999993E0,1.0666667E0,1.0000001E0,2.8999999E0,1.3200001E1,2.733219E2,2.2900003E1,2.6961417E2,1.9523155E1,6.0899994E1,2.777817E2,2.7504093E1,7.941573E-1,2.0635416E1,3.0965725E-1,1.4700955E0,2.7239126E-1,2.076302E0,4.6682337E-1,1.1691954E0,3.7338765E0,5.8486414E-1,4.2001884E-2,-6.5206754E-1,6.365726E-2,8.138764E-1,-2.653484E-1,-6.283155E-2,1.4055067E0,2.8590816E-1,-4.993731E-1,-6.867115E-1,-2.4533015E-1,-2.6026082E-1,5.9590024E-1,3.0806735E-1,-3.5708013E-1,-1.0333394E-1,-5.21476E-1,-1.0176669E-2,-5.1327944E-1,4.9651828E-1,5.2470695E-2,5.6025666E-1,-1.225998E-1,1.2380954E0,-2.8516931E-2,1.26166E0,4.0536575E0,1.1196349E0,5.201216E-1,-3.207147E-1,3.1919503E-1,4.579431E-1,-6.5751415E-1,-3.822029E-1,3.9283514E-1,4.3616846E-1,-2.4830185E-1,1.3308762E0,2.7665728E-1,1.5792655E-2,-4.677318E-1,-2.7764803E-1,-6.2992644E-1,-6.74356E-1,9.7265726E-1,-4.399937E-1,5.749002E-1,-6.5630186E-1,1.3887635E-1,-9.148162E-1,-4.841649E-1],"split_indices":[3,0,2,2,0,0,2,3,3,3,1,2,0,0,3,3,2,1,3,0,0,0,2,3,3,3,2,1,0,3,1,3,0,0,2,2,2,0,2,1,1,2,2,0,2,0,2,0,1,0,1,1,1,3,0,3,2,1,3,2,0,0,0,0,0,0,0,0,0,0,0,0,0,0,0,0,0,0,0,0,0,0,0,0,0,0,0,0,0,0,0,0,0,0,0,0,0,0,0,0,0,0,0,0,0,0,0,0,0,0,0,0,0,0,0,0,0,0,0,0,0],"split_type":[0,0,0,0,0,0,0,0,0,0,0,0,0,0,0,0,0,0,0,0,0,0,0,0,0,0,0,0,0,0,0,0,0,0,0,0,0,0,0,0,0,0,0,0,0,0,0,0,0,0,0,0,0,0,0,0,0,0,0,0,0,0,0,0,0,0,0,0,0,0,0,0,0,0,0,0,0,0,0,0,0,0,0,0,0,0,0,0,0,0,0,0,0,0,0,0,0,0,0,0,0,0,0,0,0,0,0,0,0,0,0,0,0,0,0,0,0,0,0,0,0],"sum_hessian":[2.321E3,9.24E2,1.397E3,4.54E2,4.7E2,5.36E2,8.61E2,3.43E2,1.11E2,3.38E2,1.32E2,2.16E2,3.2E2,6.12E2,2.49E2,2.4E2,1.03E2,3.3E1,7.8E1,1.53E2,1.85E2,8.4E1,4.8E1,7.1E1,1.45E2,3.03E2,1.7E1,2.5E2,3.62E2,9E0,2.4E2,3.9E1,2.01E2,5.4E1,4.9E1,2.7E1,6E0,4.7E1,3.1E1,1.03E2,5E1,8E1,1.05E2,3.3E1,5.1E1,2E0,4.6E1,1.4E1,5.7E1,9.1E1,5.4E1,1.9E1,2.84E2,1.4E1,3E0,1.31E2,1.19E2,3.42E2,2E1,8E0,1E0,2.39E2,1E0,5E0,3.4E1,1.81E2,2E1,5.2E1,2E0,3.3E1,1.6E1,2.6E1,1E0,2E0,4E0,8E0,3.9E1,1.7E1,1.4E1,8.8E1,1.5E1,4.3E1,7E0,6.5E1,1.5E1,5.5E1,5E1,2E1,1.3E1,2.2E1,2.9E1,3.9E1,7E0,5E0,9E0,5.6E1,1E0,2.3E1,6.8E1,4.4E1,1E1,1.6E1,3E0,2.76E2,8E0,8E0,6E0,2E0,1E0,8.2E1,4.9E1,4.4E1,7.5E1,3.41E2,1E0,1.3E1,7E0,6E0,2E0,2.31E2,8E0],"tree_param":{"num_deleted":"0","num_feature":"4","num_nodes":"121","size_leaf_vector":"1"}},{"base_weights":[9.013537E-3,1.2315576E0,-7.999008E-1,2.776581E0,-2.6359573E-1,2.2918193E-1,-1.4400604E0,3.9426773E0,1.513057E0,-5.700232E-1,8.505391E-1,1.4920123E0,-6.8629515E-1,-1.1917377E0,-2.0431874E0,3.2119367E0,5.7008014E0,-8.47254E-1,2.21225E0,-1.0130401E0,-1.9249634E-1,2.5340718E-1,1.9863799E0,2.878075E0,8.118773E-1,-1.1106647E0,-2.7620235E-1,-8.493031E-1,-1.5485107E0,-5.7646626E-1,-2.0955694E0,5.790311E-1,3.5816123E0,-4.1328245E-1,6.299153E0,-1.5242981E0,8.792717E-1,4.478662E0,1.1755375E0,-1.4682512E0,-2.9132363E-1,4.20523E-1,-6.012738E-1,-2.599075E-1,1.2053136E0,7.469003E0,1.4277662E0,3.7604058E0,1.6025032E0,1.5319849E0,-4.628088E-1,-6.3858874E-2,-1.3869783E0,-6.9145834E-1,7.3689103E-1,-5.4309106E-1,-1.391885E0,-1.6906401E0,-4.632134E-1,-1.140543E0,6.750337E-1,-2.1252325E0,1.932801E-1,1.5729644E0,-1.3001327E-1,1.6439822E0,7.9319257E-1,3.9331794E-1,-6.1029124E-1,3.3878407E-1,2.1814928E0,-8.130967E-1,-3.310979E-1,7.6636994E-1,-2.7177963E-1,1.0159808E-1,1.8311883E0,7.8916216E-1,3.1245228E-2,-5.575924E-1,-2.6136544E-1,-4.407988E-1,4.1575465E-2,-4.9820647E-1,1.9195081E-1,-1.0465217E-1,-6.375154E-1,-4.3999812E-1,1.1770729E-1,8.1643033E-1,8.314909E-2,2.8535256E0,5.0752574E-1,5.5109644E-1,-1.0638827E-1,4.9423552E-1,1.485453E0,2.7396172E-1,3.4456089E0,-6.4393187E-1,5.0122195E-1,9.087326E-2,-3.1396934E-1,2.5885597E-1,-3.3072567E-1,-2.2985317E-1,-4.9539158E-1,6.7723155E-1,-2.3744868E-1,6.275675E-1,9.42411E-2,-2.3233928E-1,4.187046E-1,-5.6494045E-1,-2.205743E-1,-5.182551E-1,6.280463E-1,-2.6011086E-1,4.000886E-1,-4.5638976E-1,2.858258E-1,-6.405746E-1,3.728199E-2,-2.0862032E-1,2.1639226E-1],"categories":[],"categories_nodes":[],"categories_segments":[],"categories_sizes":[],"default_left":[0,0,0,0,0,0,0,0,0,0,0,0,0,0,0,0,0,0,0,0,0,0,0,0,0,0,0,0,0,0,0,0,0,0,0,0,0,0,0,0,0,0,0,0,0,0,0,0,0,0,0,0,0,0,0,0,0,0,0,0,0,0,0,0,0,0,0,0,0,0,0,0,0,0,0,0,0,0,0,0,0,0,0,0,0,0,0,0,0,0,0,0,0,0,0,0,0,0,0,0,0,0,0,0,0,0,0,0,0,0,0,0,0,0,0,0,0,0,0,0,0,0,0,0,0],"id":1,"left_children":[1,3,5,7,9,11,13,15,17,19,21,23,25,27,29,31,33,35,37,39,41,43,45,47,49,51,53,55,57,59,61,63,65,67,69,71,73,75,77,79,81,83,85,87,89,91,93,95,97,99,101,103,105,107,109,111,113,115,117,119,-1,121,123,-1,-1,-1,-1,-1,-1,-1,-1,-1,-1,-1,-1,-1,-1,-1,-1,-1,-1,-1,-1,-1,-1,-1,-1,-1,-1,-1,-1,-1,-1,-1,-1,-1,-1,-1,-1,-1,-1,-1,-1,-1,-1,-1,-1,-1,-1,-1,-1,-1,-1,-1,-1,-1,-1,-1,-1,-1,-1,-1,-1,-1,-1],"loss_changes":[2.2972883E3,2.1375254E3,9.213006E2,6.64427E2,1.6128493E2,6.218455E2,1.2666687E2,2.8488623E2,3.6494318E2,6.1687782E1,6.867782E1,2.1071582E2,5.3990875E1,7.357587E1,1.7999268E1,1.6241736E2,2.5137256E2,6.09559E1,3.941703E2,5.5422928E1,5.062113E1,3.3539944E1,9.652937E1,7.7259155E1,1.4114943E2,4.4166153E1,6.782043E1,5.1579803E1,4.533844E1,1.8510424E1,1.6773315E1,1.061576E2,2.4894287E2,2.2233463E1,3.035022E2,1.5467567E1,4.71754E1,3.5455603E2,1.8367278E2,2.2620605E1,3.4134747E1,3.8033947E1,4.5801605E1,3.599598E1,3.3018223E1,1.9312881E1,2.4721458E1,1.00062744E2,2.0750285E2,5.360527E1,2.5348629E1,3.271195E1,1.859024E1,3.5416683E1,2.6265965E1,9.214266E1,3.5066162E1,4.045691E1,2.7278107E1,8.622736E0,0E0,5.6276855E0,2.37859E0,0E0,0E0,0E0,0E0,0E0,0E0,0E0,0E0,0E0,0E0,0E0,0E0,0E0,0E0,0E0,0E0,0E0,0E0,0E0,0E0,0E0,0E0,0E0,0E0,0E0,0E0,0E0,0E0,0E0,0E0,0E0,0E0,0E0,0E0,0E0,0E0,0E0,0E0,0E0,0E0,0E0,0E0,0E0,0E0,0E0,0E0,0E0,0E0,0E0,0E0,0E0,0E0,0E0,0E0,0E0,0E0,0E0,0E0,0E0,0E0,0E0,0E0],"parents":[2147483647,0,0,1,1,2,2,3,3,4,4,5,5,6,6,7,7,8,8,9,9,10,10,11,11,12,12,13,13,14,14,15,15,16,16,17,17,18,18,19,19,20,20,21,21,22,22,23,23,24,24,25,25,26,26,27,27,28,28,29,29,30,30,31,31,32,32,33,33,34,34,35,35,36,36,37,37,38,38,39,39,40,40,41,41,42,42,43,43,44,44,45,45,46,46,47,47,48,48,49,49,50,50,51,51,52,52,53,53,54,54,55,55,56,56,57,57,58,58,59,59,61,61,62,62],"right_children":[2,4,6,8,10,12,14,16,18,20,22,24,26,28,30,32,34,36,38,40,42,44,46,48,50,52,54,56,58,60,62,64,66,68,70,72,74,76,78,80,82,84,86,88,90,92,94,96,98,100,102,104,106,108,110,112,114,116,118,120,-1,122,124,-1,-1,-1,-1,-1,-1,-1,-1,-1,-1,-1,-1,-1,-1,-1,-1,-1,-1,-1,-1,-1,-1,-1,-1,-1,-1,-1,-1,-1,-1,-1,-1,-1,-1,-1,-1,-1,-1,-1,-1,-1,-1,-1,-1,-1,-1,-1,-1,-1,-1,-1,-1,-1,-1,-1,-1,-1,-1,-1,-1,-1,-1],"split_conditions":[1.9866515E2,9.714584E0,1.6179987E1,1.4512064E1,2.1870834E1,9.333333E0,2.4798223E1,3E-1,6.1441936E1,9.52049E1,1E-1,1.1207801E1,2E-1,1.1275001E1,2.1053113E2,2.9372507E1,-1.6333333E0,1.6999999E0,1.0666667E0,1.7647917E1,1.4743751E1,2.5095835E1,9.220499E0,2.666752E2,2.777817E2,2.392239E2,1.8977083E1,2.6961417E2,2.1072916E1,2.0952704E2,1.94E1,4.077723E0,1.0426454E2,1.1681987E1,3.2527454E1,1.5226764E1,1.8844202E1,-3.4895833E0,1.2426471E2,6.783362E1,1.0829959E1,1.026875E1,1.8378601E2,1.2496719E1,1.3044722E1,2.2031248E1,2.3000002E0,2.1921191E2,3.4999993E0,-3.4895833E0,3.0367474E2,1.653125E1,1.1367109E1,9.107359E0,1.9379168E1,2.6253378E2,6.63125E0,1.94E1,3.0902115E2,2.9024128E1,6.750337E-1,2.4195833E1,2.514852E1,1.5729644E0,-1.3001327E-1,1.6439822E0,7.9319257E-1,3.9331794E-1,-6.1029124E-1,3.3878407E-1,2.1814928E0,-8.130967E-1,-3.310979E-1,7.6636994E-1,-2.7177963E-1,1.0159808E-1,1.8311883E0,7.8916216E-1,3.1245228E-2,-5.575924E-1,-2.6136544E-1,-4.407988E-1,4.1575465E-2,-4.9820647E-1,1.9195081E-1,-1.0465217E-1,-6.375154E-1,-4.3999812E-1,1.1770729E-1,8.1643033E-1,8.314909E-2,2.8535256E0,5.0752574E-1,5.5109644E-1,-1.0638827E-1,4.9423552E-1,1.485453E0,2.7396172E-1,3.4456089E0,-6.4393187E-1,5.0122195E-1,9.087326E-2,-3.1396934E-1,2.5885597E-1,-3.3072567E-1,-2.2985317E-1,-4.9539158E-1,6.7723155E-1,-2.3744868E-1,6.275675E-1,9.42411E-2,-2.3233928E-1,4.187046E-1,-5.6494045E-1,-2.205743E-1,-5.182551E-1,6.280463E-1,-2.6011086E-1,4.000886E-1,-4.5638976E-1,2.858258E-1,-6.405746E-1,3.728199E-2,-2.0862032E-1,2.1639226E-1],"split_indices":[3,0,2,2,0,0,2,1,3,3,1,2,1,0,3,3,0,1,0,0,0,0,2,3,3,3,0,3,0,3,1,3,3,2,3,2,2,0,3,3,2,0,3,2,2,0,1,3,1,0,3,0,2,2,0,3,0,1,3,2,0,0,2,0,0,0,0,0,0,0,0,0,0,0,0,0,0,0,0,0,0,0,0,0,0,0,0,0,0,0,0,0,0,0,0,0,0,0,0,0,0,0,0,0,0,0,0,0,0,0,0,0,0,0,0,0,0,0,0,0,0,0,0,0,0],"split_type":[0,0,0,0,0,0,0,0,0,0,0,0,0,0,0,0,0,0,0,0,0,0,0,0,0,0,0,0,0,0,0,0,0,0,0,0,0,0,0,0,0,0,0,0,0,0,0,0,0,0,0,0,0,0,0,0,0,0,0,0,0,0,0,0,0,0,0,0,0,0,0,0,0,0,0,0,0,0,0,0,0,0,0,0,0,0,0,0,0,0,0,0,0,0,0,0,0,0,0,0,0,0,0,0,0,0,0,0,0,0,0,0,0,0,0,0,0,0,0,0,0,0,0,0,0],"sum_hessian":[2.321E3,9.24E2,1.397E3,4.54E2,4.7E2,5.36E2,8.61E2,2.35E2,2.19E2,3.69E2,1.01E2,2.25E2,3.11E2,6.12E2,2.49E2,1.68E2,6.7E1,5E1,1.69E2,1.69E2,2E2,6.7E1,3.4E1,7.3E1,1.52E2,1.52E2,1.59E2,3.14E2,2.98E2,9E0,2.4E2,2.1E1,1.47E2,6E0,6.1E1,3.6E1,1.4E1,5.2E1,1.17E2,1.03E2,6.6E1,8E1,1.2E2,4.4E1,2.3E1,2E0,3.2E1,4.2E1,3.1E1,9.7E1,5.5E1,3.2E1,1.2E2,1.13E2,4.6E1,2.02E2,1.12E2,2.63E2,3.5E1,8E0,1E0,2.37E2,3E0,3E0,1.8E1,4.7E1,1E2,3E0,3E0,1E1,5.1E1,8E0,2.8E1,7E0,7E0,1.5E1,3.7E1,4.9E1,6.8E1,6.1E1,4.2E1,1.7E1,4.9E1,7E0,7.3E1,1.04E2,1.6E1,1.5E1,2.9E1,8E0,1.5E1,1E0,1E0,2.6E1,6E0,1.6E1,2.6E1,3E1,1E0,3E0,9.4E1,2.4E1,3.1E1,1.7E1,1.5E1,3.7E1,8.3E1,3E0,1.1E2,1E1,3.6E1,1.81E2,2.1E1,6.3E1,4.9E1,2.61E2,2E0,2.9E1,6E0,7E0,1E0,2.36E2,1E0,1E0,2E0],"tree_param":{"num_deleted":"0","num_feature":"4","num_nodes":"125","size_leaf_vector":"1"}},{"base_weights":[1.3054099E-2,1.0742189E0,-4.9590775E-1,2.4201417E0,-1.6069489E-2,3.5977164E-1,-9.1154003E-1,2.969261E0,5.5871683E-1,-1.2985843E-1,2.843882E0,1.6372529E0,-1.04182616E-1,-5.171543E-1,-1.2053337E0,9.221786E-1,3.3155086E0,-9.9029976E-1,2.3934112E0,-3.6539632E-1,7.5285816E-1,4.087272E0,9.035301E-2,2.8048978E0,6.631577E-1,2.9098928E-1,-5.093635E-1,1.5216373E0,-6.347595E-1,-1.2222419E0,1.6406755E0,4.264948E0,1.8516156E-1,3.0497947E-1,3.7843153E0,-1.529933E0,1.1901094E-1,3.0929573E0,-4.8594365E-1,8.6433846E-1,-5.0123644E-1,-1.3546608E-1,1.8040987E0,7.2972264E0,1.9713862E0,-3.035123E-1,2.6829308E-1,3.8098648E0,9.351774E-1,-2.392868E-1,2.513716E0,4.9100104E-1,-1.0048935E0,-9.7116536E-1,3.260611E-2,3.2995636E0,-1.4752084E0,-7.238994E-1,7.747513E-1,-4.9728575E-1,-1.2757256E0,6.422011E-1,2.1103693E-2,1.4240074E-1,1.7058378E0,-6.068394E-2,1.2381005E0,-1.8768658E-1,6.1615705E-1,1.4195741E0,7.1069777E-1,-5.0019914E-1,-2.1760625E-1,4.8653314E-1,-7.2163033E-1,2.474889E-1,1.2897319E0,1.3612077E0,5.327183E-2,-2.3066221E-1,5.6674246E-2,-1.3834552E-1,5.374421E-1,1.7138541E0,3.9590386E-1,2.626168E0,4.390843E-1,5.1310826E-2,1.4744873E0,9.760268E-1,2.8764536E0,2.7054051E-2,2.9287674E0,-5.927464E-1,3.6405526E-2,-8.2947664E-2,1.0842474E0,-3.325288E-1,2.0749798E-1,-4.1741675E-1,-3.607426E-2,2.9753277E-1,-3.124127E-1,6.589471E-1,-9.2846654E-2,-4.1471243E-2,1.0613898E0,-6.6087943E-1,2.871368E-1,-1.10194415E-1,-3.204767E-1,-2.0765532E-2,8.047007E-1,2.6228258E-1,-4.8585993E-1,-3.8946992E-1,7.3943205E-2],"categories":[],"categories_nodes":[],"categories_segments":[],"categories_sizes":[],"default_left":[0,0,0,0,0,0,0,0,0,0,0,0,0,0,0,0,0,0,0,0,0,0,0,0,0,0,0,0,0,0,0,0,0,0,0,0,0,0,0,0,0,0,0,0,0,0,0,0,0,0,0,0,0,0,0,0,0,0,0,0,0,0,0,0,0,0,0,0,0,0,0,0,0,0,0,0,0,0,0,0,0,0,0,0,0,0,0,0,0,0,0,0,0,0,0,0,0,0,0,0,0,0,0,0,0,0,0,0,0,0,0,0,0,0,0,0,0],"id":2,"left_children":[1,3,5,7,9,11,13,15,17,19,21,23,25,27,29,31,33,35,37,39,41,43,45,47,49,51,53,55,57,59,61,63,65,67,69,71,73,75,-1,77,79,81,83,85,87,-1,-1,89,91,93,95,97,99,101,103,105,107,109,111,113,115,-1,-1,-1,-1,-1,-1,-1,-1,-1,-1,-1,-1,-1,-1,-1,-1,-1,-1,-1,-1,-1,-1,-1,-1,-1,-1,-1,-1,-1,-1,-1,-1,-1,-1,-1,-1,-1,-1,-1,-1,-1,-1,-1,-1,-1,-1,-1,-1,-1,-1,-1,-1,-1,-1,-1,-1],"loss_changes":[1.2546273E3,1.1050243E3,5.586952E2,3.4280347E2,1.3607397E2,3.048147E2,1.2184918E2,1.8122974E2,2.2404402E2,8.385621E1,5.441008E1,1.5396338E2,6.0672108E1,1.0958283E2,3.1118408E1,9.529375E1,3.1216675E2,2.592278E1,1.0607764E2,5.3554295E1,7.9621E1,6.0325226E1,6.220838E0,1.1293555E2,1.2752348E2,5.025824E1,4.68345E1,1.3807181E2,5.4461975E1,2.2707092E1,2.9900408E0,3.5007584E1,5.1233456E1,5.1737675E1,2.4629248E2,1.99646E0,6.080584E1,8.125513E1,0E0,7.991441E1,5.3157066E1,3.0322237E1,6.6306305E1,2.1178177E1,4.1555042E1,0E0,0E0,9.741748E1,1.7067918E2,3.280535E1,7.776083E1,5.436362E1,8.722397E0,1.4952484E1,6.508188E1,1.3602371E1,1.980911E1,4.9215652E1,4.2044193E1,6.760284E1,1.9506042E1,0E0,0E0,0E0,0E0,0E0,0E0,0E0,0E0,0E0,0E0,0E0,0E0,0E0,0E0,0E0,0E0,0E0,0E0,0E0,0E0,0E0,0E0,0E0,0E0,0E0,0E0,0E0,0E0,0E0,0E0,0E0,0E0,0E0,0E0,0E0,0E0,0E0,0E0,0E0,0E0,0E0,0E0,0E0,0E0,0E0,0E0,0E0,0E0,0E0,0E0,0E0,0E0,0E0,0E0,0E0,0E0],"parents":[2147483647,0,0,1,1,2,2,3,3,4,4,5,5,6,6,7,7,8,8,9,9,10,10,11,11,12,12,13,13,14,14,15,15,16,16,17,17,18,18,19,19,20,20,21,21,22,22,23,23,24,24,25,25,26,26,27,27,28,28,29,29,30,30,31,31,32,32,33,33,34,34,35,35,36,36,37,37,39,39,40,40,41,41,42,42,43,43,44,44,47,47,48,48,49,49,50,50,51,51,52,52,53,53,54,54,55,55,56,56,57,57,58,58,59,59,60,60],"right_children":[2,4,6,8,10,12,14,16,18,20,22,24,26,28,30,32,34,36,38,40,42,44,46,48,50,52,54,56,58,60,62,64,66,68,70,72,74,76,-1,78,80,82,84,86,88,-1,-1,90,92,94,96,98,100,102,104,106,108,110,112,114,116,-1,-1,-1,-1,-1,-1,-1,-1,-1,-1,-1,-1,-1,-1,-1,-1,-1,-1,-1,-1,-1,-1,-1,-1,-1,-1,-1,-1,-1,-1,-1,-1,-1,-1,-1,-1,-1,-1,-1,-1,-1,-1,-1,-1,-1,-1,-1,-1,-1,-1,-1,-1,-1,-1,-1,-1],"split_conditions":[1.6651607E2,8.358333E0,1.4773164E1,1.7518356E1,1.5814842E2,5.0729165E0,1.9523155E1,3.2527454E1,8.498933E1,2.1504166E1,1E-1,1.1207801E1,1.4743751E1,5.8124983E-1,2.64E1,-4.020834E-1,-2.3270833E0,1.6999999E0,2.6E0,9.481251E0,1.0290742E2,1.034375E1,1.5000001E0,2.666752E2,1.3684735E1,3.2160126E2,1.9089586E1,2.7251825E2,2.2031248E1,1.68125E0,1.80625E1,8.037761E0,1.5226764E1,1.2820708E2,1.2426471E2,2.3708124E1,1.2062501E0,1.9008545E1,-4.8594365E-1,1.3684735E1,2E-1,1.7309973E1,2.2031248E1,1.6071491E1,1.5408671E1,-3.035123E-1,2.6829308E-1,2.5306868E2,3.4999993E0,-4.222916E0,2.0524806E2,1.8598747E2,1.2618751E1,1.754443E2,1.9379168E1,1.4917212E1,4E-1,1.06625E1,2.5306868E2,2.4567534E2,2.3308334E1,6.422011E-1,2.1103693E-2,1.4240074E-1,1.7058378E0,-6.068394E-2,1.2381005E0,-1.8768658E-1,6.1615705E-1,1.4195741E0,7.1069777E-1,-5.0019914E-1,-2.1760625E-1,4.8653314E-1,-7.2163033E-1,2.474889E-1,1.2897319E0,1.3612077E0,5.327183E-2,-2.3066221E-1,5.6674246E-2,-1.3834552E-1,5.374421E-1,1.7138541E0,3.9590386E-1,2.626168E0,4.390843E-1,5.1310826E-2,1.4744873E0,9.760268E-1,2.8764536E0,2.7054051E-2,2.9287674E0,-5.927464E-1,3.6405526E-2,-8.2947664E-2,1.0842474E0,-3.325288E-1,2.0749798E-1,-4.1741675E-1,-3.607426E-2,2.9753277E-1,-3.124127E-1,6.589471E-1,-9.2846654E-2,-4.1471243E-2,1.0613898E0,-6.6087943E-1,2.871368E-1,-1.10194415E-1,-3.204767E-1,-2.0765532E-2,8.047007E-1,2.6228258E-1,-4.8585993E-1,-3.8946992E-1,7.3943205E-2],"split_indices":[3,0,2,2,3,0,2,3,3,0,1,2,0,0,1,0,0,1,1,0,3,0,1,3,2,3,0,3,0,0,0,2,2,3,3,2,0,2,0,2,1,2,0,2,2,0,0,3,1,0,3,3,0,3,0,2,1,0,3,3,0,0,0,0,0,0,0,0,0,0,0,0,0,0,0,0,0,0,0,0,0,0,0,0,0,0,0,0,0,0,0,0,0,0,0,0,0,0,0,0,0,0,0,0,0,0,0,0,0,0,0,0,0,0,0,0,0],"split_type":[0,0,0,0,0,0,0,0,0,0,0,0,0,0,0,0,0,0,0,0,0,0,0,0,0,0,0,0,0,0,0,0,0,0,0,0,0,0,0,0,0,0,0,0,0,0,0,0,0,0,0,0,0,0,0,0,0,0,0,0,0,0,0,0,0,0,0,0,0,0,0,0,0,0,0,0,0,0,0,0,0,0,0,0,0,0,0,0,0,0,0,0,0,0,0,0,0,0,0,0,0,0,0,0,0,0,0,0,0,0,0,0,0,0,0,0,0],"sum_hessian":[2.321E3,7.52E2,1.569E3,3.36E2,4.16E2,5.13E2,1.056E3,2.59E2,7.7E1,4.01E2,1.5E1,1.36E2,3.77E2,4.52E2,6.04E2,3.8E1,2.21E2,4.2E1,3.5E1,3.17E2,8.4E1,1E1,5E0,6.1E1,7.5E1,1.91E2,1.86E2,2.4E1,4.28E2,6.01E2,3E0,6E0,3.2E1,3E1,1.91E2,2.8E1,1.4E1,3E1,5E0,3.1E1,2.86E2,4.6E1,3.8E1,3E0,7E0,2E0,3E0,3.9E1,2.2E1,5.1E1,2.4E1,1.66E2,2.5E1,1E2,8.6E1,1.5E1,9E0,4.03E2,2.5E1,4.2E1,5.59E2,2E0,1E0,2E0,4E0,3E1,2E0,2E1,1E1,1.13E2,7.8E1,2.3E1,5E0,9E0,5E0,1.1E1,1.9E1,4E0,2.7E1,2.06E2,8E1,4E1,6E0,3E0,3.5E1,2E0,1E0,5E0,2E0,3.7E1,2E0,2.1E1,1E0,8E0,4.3E1,7E0,1.7E1,1.8E1,1.48E2,1.7E1,8E0,3E0,9.7E1,1.1E1,7.5E1,1E0,1.4E1,7E0,2E0,1.99E2,2.04E2,1.8E1,7E0,1.9E1,2.3E1,5.51E2,8E0],"tree_param":{"num_deleted":"0","num_feature":"4","num_nodes":"117","size_leaf_vector":"1"}},{"base_weights":[1.8757807E-2,1.5989769E0,-1.607871E-1,-9.6725416E-1,1.9474062E0,4.4784918E-1,-5.4516345E-1,9.6894455E-1,-1.7509938E0,2.8516822E0,1.0418203E0,1.3187001E0,-8.004242E-2,-2.7019316E-1,-8.7090564E-1,-1.39504E0,3.1391401E0,-9.2462766E-1,-1.8910431E0,2.6031675E0,1.0350614E1,1.8649298E0,-2.5684494E-1,2.3346252E0,7.498953E-1,-3.322382E-1,5.845885E-1,5.7165135E-2,-6.652831E-1,-8.878972E-1,1.2776942E0,-5.5559564E-2,-4.9536026E-1,-8.740166E-1,1.8317752E0,-9.267626E-2,-3.696376E-1,-7.796014E-1,-1.2688214E0,3.025076E0,-1.162172E0,4.037179E0,6.2059766E-1,1.6347513E0,2.4894524E0,8.450937E-1,-1.039967E0,1.107138E0,3.9303079E0,2.2453976E0,4.3527955E-1,-4.5965075E-1,1.0119944E0,1.6411772E0,-1.0596401E-1,6.8387073E-1,-2.2316982E-1,-8.433472E-1,2.953239E-1,-6.290621E-1,-1.055712E0,-3.8774619E-1,7.55171E-1,-7.7073246E-1,3.7742496E-1,-3.9874792E-2,-4.1073608E-1,5.58884E-1,2.4127598E0,-9.959917E-1,1.6354153E-1,7.0197605E-2,6.4092916E-1,-4.5969298E-1,4.2681855E-1,-7.5473483E-3,-4.077327E-1,-8.767638E-2,8.600449E-1,8.5787064E-1,2.281826E0,-1.655488E-2,2.1182158E0,2.5926027E-1,-1.02810755E-1,-1.5494877E-1,2.362433E-1,4.351375E-1,-8.090597E-2,5.890581E-1,-6.736721E-2,1.0676956E0,-7.1146615E-2,7.670501E-2,7.94854E-1,-1.0302099E-1,3.1547946E-1,-5.0504225E-1,-2.1760748E-1,-1.1882878E-1,5.3680414E-1,1.9769784E-2,-2.4642135E-1,-3.3729494E-1,-1.4826141E-1,1.3441974E-1,-3.089055E-1],"categories":[],"categories_nodes":[],"categories_segments":[],"categories_sizes":[],"default_left":[0,0,0,0,0,0,0,0,0,0,0,0,0,0,0,0,0,0,0,0,0,0,0,0,0,0,0,0,0,0,0,0,0,0,0,0,0,0,0,0,0,0,0,0,0,0,0,0,0,0,0,0,0,0,0,0,0,0,0,0,0,0,0,0,0,0,0,0,0,0,0,0,0,0,0,0,0,0,0,0,0,0,0,0,0,0,0,0,0,0,0,0,0,0,0,0,0,0,0,0,0,0,0,0,0,0,0],"id":3,"left_children":[1,3,5,7,9,11,13,15,17,19,21,23,25,27,29,31,33,35,37,39,41,43,45,47,49,51,53,55,57,59,61,-1,-1,63,-1,-1,-1,-1,65,67,69,-1,-1,71,-1,73,75,77,79,81,83,85,87,89,91,93,95,97,99,101,103,105,-1,-1,-1,-1,-1,-1,-1,-1,-1,-1,-1,-1,-1,-1,-1,-1,-1,-1,-1,-1,-1,-1,-1,-1,-1,-1,-1,-1,-1,-1,-1,-1,-1,-1,-1,-1,-1,-1,-1,-1,-1,-1,-1,-1,-1],"loss_changes":[6.5905554E2,2.1379724E2,4.882542E2,4.5703415E1,1.6817902E2,3.7155515E2,1.14323944E2,5.0552006E1,6.818619E-1,1.6686926E2,1.13787025E2,1.7449756E2,8.467325E1,8.992651E1,2.2491669E1,1.2437696E0,6.4867386E1,5.660124E-1,4.187874E0,1.6555573E2,4.9348877E1,8.268613E1,3.7122875E1,2.0914478E2,9.171279E1,6.315075E1,1.0159247E2,6.7089554E1,5.4129715E1,2.4572388E1,1.1297969E1,0E0,0E0,1.4074463E1,0E0,0E0,0E0,0E0,1.0712547E0,5.21463E2,4.2334225E1,0E0,0E0,4.4474915E1,0E0,2.6898937E1,8.062508E0,1.5597414E2,1.6323248E2,3.7704282E2,5.5021835E1,2.4155937E1,1.8374237E1,3.3518936E1,4.1712856E1,9.863884E1,4.0824337E1,2.5146317E1,5.2358616E1,3.093203E1,1.2965576E1,2.0709872E0,0E0,0E0,0E0,0E0,0E0,0E0,0E0,0E0,0E0,0E0,0E0,0E0,0E0,0E0,0E0,0E0,0E0,0E0,0E0,0E0,0E0,0E0,0E0,0E0,0E0,0E0,0E0,0E0,0E0,0E0,0E0,0E0,0E0,0E0,0E0,0E0,0E0,0E0,0E0,0E0,0E0,0E0,0E0,0E0,0E0],"parents":[2147483647,0,0,1,1,2,2,3,3,4,4,5,5,6,6,7,7,8,8,9,9,10,10,11,11,12,12,13,13,14,14,15,15,16,16,17,17,18,18,19,19,20,20,21,21,22,22,23,23,24,24,25,25,26,26,27,27,28,28,29,29,30,30,33,33,38,38,39,39,40,40,43,43,45,45,46,46,47,47,48,48,49,49,50,50,51,51,52,52,53,53,54,54,55,55,56,56,57,57,58,58,59,59,60,60,61,61],"right_children":[2,4,6,8,10,12,14,16,18,20,22,24,26,28,30,32,34,36,38,40,42,44,46,48,50,52,54,56,58,60,62,-1,-1,64,-1,-1,-1,-1,66,68,70,-1,-1,72,-1,74,76,78,80,82,84,86,88,90,92,94,96,98,100,102,104,106,-1,-1,-1,-1,-1,-1,-1,-1,-1,-1,-1,-1,-1,-1,-1,-1,-1,-1,-1,-1,-1,-1,-1,-1,-1,-1,-1,-1,-1,-1,-1,-1,-1,-1,-1,-1,-1,-1,-1,-1,-1,-1,-1,-1,-1],"split_conditions":[9.541666E-1,-5.633333E0,1.4773164E1,1.0739833E1,1.5814842E2,9.660417E0,2.034E1,-7.227083E0,1.1995349E1,8.2916665E-1,1.6167967E1,1.42696E2,5E-1,2.3400513E2,2.64E1,1.4325834E1,5.083389E1,-7.227083E0,1.3830749E1,2.5E0,1E-1,4.6E0,2.4567534E2,8.8735756E1,9.387651E0,2.3308334E1,2.0297942E2,8.008332E0,3.9E0,9.000001E-1,1.653125E1,-5.5559564E-2,-4.9536026E-1,9.826088E0,1.8317752E0,-9.267626E-2,-3.696376E-1,-7.796014E-1,1.5629972E1,1.1000001E0,1.7163355E1,4.037179E0,6.2059766E-1,-2.0541668E0,2.4894524E0,-1.0333333E0,1.7283749E1,6.7812505E0,3E-1,8.78872E0,2.4929564E2,1.4512064E1,1.3202726E1,2.2552084E1,8.427383E0,6.96875E0,2.2494807E2,1.5379206E1,3.0367474E2,5.93125E0,1.7712502E1,7.047916E0,7.55171E-1,-7.7073246E-1,3.7742496E-1,-3.9874792E-2,-4.1073608E-1,5.58884E-1,2.4127598E0,-9.959917E-1,1.6354153E-1,7.0197605E-2,6.4092916E-1,-4.5969298E-1,4.2681855E-1,-7.5473483E-3,-4.077327E-1,-8.767638E-2,8.600449E-1,8.5787064E-1,2.281826E0,-1.655488E-2,2.1182158E0,2.5926027E-1,-1.02810755E-1,-1.5494877E-1,2.362433E-1,4.351375E-1,-8.090597E-2,5.890581E-1,-6.736721E-2,1.0676956E0,-7.1146615E-2,7.670501E-2,7.94854E-1,-1.0302099E-1,3.1547946E-1,-5.0504225E-1,-2.1760748E-1,-1.1882878E-1,5.3680414E-1,1.9769784E-2,-2.4642135E-1,-3.3729494E-1,-1.4826141E-1,1.3441974E-1,-3.089055E-1],"split_indices":[0,0,2,2,3,0,2,0,2,0,2,3,1,3,1,3,3,0,2,1,1,1,3,3,2,0,3,0,1,1,0,0,0,2,0,0,0,0,2,1,2,0,0,0,0,0,2,0,1,2,3,2,2,0,2,0,3,2,3,0,0,0,0,0,0,0,0,0,0,0,0,0,0,0,0,0,0,0,0,0,0,0,0,0,0,0,0,0,0,0,0,0,0,0,0,0,0,0,0,0,0,0,0,0,0,0,0],"split_type":[0,0,0,0,0,0,0,0,0,0,0,0,0,0,0,0,0,0,0,0,0,0,0,0,0,0,0,0,0,0,0,0,0,0,0,0,0,0,0,0,0,0,0,0,0,0,0,0,0,0,0,0,0,0,0,0,0,0,0,0,0,0,0,0,0,0,0,0,0,0,0,0,0,0,0,0,0,0,0,0,0,0,0,0,0,0,0,0,0,0,0,0,0,0,0,0,0,0,0,0,0,0,0,0,0,0,0],"sum_hessian":[2.321E3,2.36E2,2.085E3,2.8E1,2.08E2,8.07E2,1.278E3,8E0,2E1,1.03E2,1.05E2,3.04E2,5.03E2,6.94E2,5.84E2,4E0,4E0,4E0,1.6E1,1.01E2,2E0,6.4E1,4.1E1,1.08E2,1.96E2,3.65E2,1.38E2,3.8E2,3.14E2,5.8E2,4E0,1E0,3E0,2E0,2E0,2E0,2E0,6E0,1E1,9.1E1,1E1,1E0,1E0,6.3E1,1E0,1.7E1,2.4E1,6.2E1,4.6E1,3.3E1,1.63E2,3.34E2,3.1E1,5.4E1,8.4E1,1.17E2,2.63E2,2.65E2,4.9E1,2.3E2,3.5E2,2E0,2E0,1E0,1E0,1E0,9E0,7.5E1,1.6E1,4E0,6E0,1.7E1,4.6E1,3E0,1.4E1,6E0,1.8E1,3.5E1,2.7E1,3.7E1,9E0,2.3E1,1E1,1.05E2,5.8E1,3.2E2,1.4E1,2.3E1,8E0,4.6E1,8E0,2E0,8.2E1,9.7E1,2E1,2.41E2,2.2E1,3.1E1,2.34E2,3.4E1,1.5E1,5E1,1.8E2,3.11E2,3.9E1,1E0,1E0],"tree_param":{"num_deleted":"0","num_feature":"4","num_nodes":"107","size_leaf_vector":"1"}},{"base_weights":[2.0674039E-2,1.1014806E0,-1.1791441E-1,2.3560789E0,6.6283005E-1,3.0305347E-1,-3.7861E-1,1.493722E0,7.8433385E0,-9.070983E-1,1.0560852E0,9.387902E-1,-6.300488E-2,-1.5140411E-1,-5.971672E-1,1.9208771E0,-1.5228963E0,9.063659E0,-2.8788343E-1,-1.4926525E0,-3.062325E-1,1.7136747E0,-2.0655836E-1,1.7920423E0,4.683597E-1,-2.4783511E-1,4.2013454E-1,1.6042848E-1,-4.2708898E-1,-1.3289999E0,-5.569924E-1,-1.6911691E-1,2.2425961E0,-2.1082656E0,3.8620335E-1,-5.6635812E-2,1.0412406E1,-2.3824518E0,-1.4040323E-1,2.0750613E0,-1.1800781E0,-7.257472E-1,2.1012042E0,5.61429E-1,-8.6526215E-1,2.0946152E0,-2.0250158E0,3.6588624E-1,4.125217E0,-3.5477546E-1,6.0069096E-1,1.1583093E0,-6.2450755E-2,7.877781E-1,-1.0274384E-1,-5.0054896E-1,7.4391365E-1,-1.4503767E0,3.832592E-1,7.140396E-1,-6.1421424E-1,-4.8986772E-1,3.1071806E-1,1.3705409E0,5.33851E-1,-2.616444E-1,-8.4519506E-1,9.967188E-1,3.7751794E0,-8.725215E-3,-8.550651E-1,-2.6939446E-1,5.0222415E-1,8.475631E-1,-2.5135237E-1,-2.4766622E-1,-6.1117864E-1,-4.81967E-1,1.5312006E-1,2.1923041E0,4.9269506E-1,-1.6830744E-1,5.181116E-1,-4.2481586E-1,-1.0823161E-1,-3.167404E-2,8.2774025E-1,2.4922466E-1,-9.346187E-1,-4.2222598E-1,1.5633458E-1,6.065828E-1,1.8807473E0,-2.7653681E-2,-2.2623143E-1,-1.583059E-1,3.6159584E-1,2.4511407E-1,8.435271E-1,-6.330462E-2,7.070359E-1,1.69717E-1,2.9826736E0,-3.968626E-1,8.074262E-3,-1.9484289E-1,3.3852585E-2,-1.9918956E-2,5.903036E-1,-5.0823677E-1,-2.891448E-1,8.734409E-1,-6.019031E-2,-1.0812654E-1,-2.1307535E-1],"categories":[],"categories_nodes":[],"categories_segments":[],"categories_sizes":[],"default_left":[0,0,0,0,0,0,0,0,0,0,0,0,0,0,0,0,0,0,0,0,0,0,0,0,0,0,0,0,0,0,0,0,0,0,0,0,0,0,0,0,0,0,0,0,0,0,0,0,0,0,0,0,0,0,0,0,0,0,0,0,0,0,0,0,0,0,0,0,0,0,0,0,0,0,0,0,0,0,0,0,0,0,0,0,0,0,0,0,0,0,0,0,0,0,0,0,0,0,0,0,0,0,0,0,0,0,0,0,0,0,0,0,0,0,0],"id":4,"left_children":[1,3,5,7,9,11,13,15,17,19,21,23,25,27,29,31,33,35,-1,37,39,41,43,45,47,49,51,53,55,57,59,61,63,65,-1,-1,67,69,71,73,75,77,79,81,83,85,87,89,91,93,95,97,99,101,103,105,107,109,-1,111,113,-1,-1,-1,-1,-1,-1,-1,-1,-1,-1,-1,-1,-1,-1,-1,-1,-1,-1,-1,-1,-1,-1,-1,-1,-1,-1,-1,-1,-1,-1,-1,-1,-1,-1,-1,-1,-1,-1,-1,-1,-1,-1,-1,-1,-1,-1,-1,-1,-1,-1,-1,-1,-1,-1],"loss_changes":[3.47936E2,1.4372552E2,2.260786E2,3.100586E2,1.2258228E2,1.8343993E2,6.3073883E1,8.0239136E1,1.05379395E2,1.3616482E1,1.3154156E2,1.1476265E2,4.484281E1,5.3798225E1,1.8311737E1,3.601599E1,1.587429E1,1.0179938E2,0E0,2.3730099E1,4.6147285E1,9.9841095E1,2.8308971E1,1.2204535E2,6.856532E1,3.3152336E1,4.9588627E1,4.8620647E1,2.8931606E1,1.2293194E1,4.5240707E1,1.5800195E1,4.1416794E1,3.6781807E0,0E0,0E0,6.596411E1,1.3126984E1,1.3874813E1,1.5477739E1,3.1804066E0,1.7152142E1,2.030252E2,3.4985825E1,7.825182E0,1.3918811E2,2.7499054E1,5.1107582E1,9.87059E0,3.3801067E1,2.8608242E1,2.8736938E1,3.1047422E1,1.7122847E2,3.2941174E1,2.8666046E1,1.9963228E1,2.1622849E0,0E0,5.4852303E1,1.4124359E1,0E0,0E0,0E0,0E0,0E0,0E0,0E0,0E0,0E0,0E0,0E0,0E0,0E0,0E0,0E0,0E0,0E0,0E0,0E0,0E0,0E0,0E0,0E0,0E0,0E0,0E0,0E0,0E0,0E0,0E0,0E0,0E0,0E0,0E0,0E0,0E0,0E0,0E0,0E0,0E0,0E0,0E0,0E0,0E0,0E0,0E0,0E0,0E0,0E0,0E0,0E0,0E0,0E0,0E0],"parents":[2147483647,0,0,1,1,2,2,3,3,4,4,5,5,6,6,7,7,8,8,9,9,10,10,11,11,12,12,13,13,14,14,15,15,16,16,17,17,19,19,20,20,21,21,22,22,23,23,24,24,25,25,26,26,27,27,28,28,29,29,30,30,31,31,32,32,33,33,36,36,37,37,38,38,39,39,40,40,41,41,42,42,43,43,44,44,45,45,46,46,47,47,48,48,49,49,50,50,51,51,52,52,53,53,54,54,55,55,56,56,57,57,59,59,60,60],"right_children":[2,4,6,8,10,12,14,16,18,20,22,24,26,28,30,32,34,36,-1,38,40,42,44,46,48,50,52,54,56,58,60,62,64,66,-1,-1,68,70,72,74,76,78,80,82,84,86,88,90,92,94,96,98,100,102,104,106,108,110,-1,112,114,-1,-1,-1,-1,-1,-1,-1,-1,-1,-1,-1,-1,-1,-1,-1,-1,-1,-1,-1,-1,-1,-1,-1,-1,-1,-1,-1,-1,-1,-1,-1,-1,-1,-1,-1,-1,-1,-1,-1,-1,-1,-1,-1,-1,-1,-1,-1,-1,-1,-1,-1,-1,-1,-1],"split_conditions":[1.2062501E0,1.1525623E1,1.4693999E1,8.000001E-1,-2.8270833E0,9.660417E0,1.964228E1,4E-1,3.4902774E2,1.4773164E1,2.3840012E2,1.42696E2,5E-1,2.176943E2,8.086552E1,6.8138976E0,5.8124983E-1,-1.6333333E0,-2.8788343E-1,2.0379843E2,1.7208603E1,5.464795E1,1.7283749E1,1.4512064E1,1.4578888E1,2.2900003E1,2.0297942E2,7.9374995E0,2.2031248E1,1.8025E1,1.14839264E2,1.6131752E2,7.729527E0,5E-1,3.8620335E-1,-5.6635812E-2,1.4E0,1.2267762E1,-4.222916E0,1E-1,9.19171E1,1.6999999E0,6.946715E1,1E-1,1.6E0,3.2527454E1,3.835416E0,8.305396E0,5.6875E0,1.257426E1,9.808615E1,1.8940521E2,1.3200001E1,7.8729167E0,8.875E0,1.8782204E1,2.5635794E2,4.8406467E1,3.832592E-1,9.239582E0,6.5708327E0,-4.8986772E-1,3.1071806E-1,1.3705409E0,5.33851E-1,-2.616444E-1,-8.4519506E-1,9.967188E-1,3.7751794E0,-8.725215E-3,-8.550651E-1,-2.6939446E-1,5.0222415E-1,8.475631E-1,-2.5135237E-1,-2.4766622E-1,-6.1117864E-1,-4.81967E-1,1.5312006E-1,2.1923041E0,4.9269506E-1,-1.6830744E-1,5.181116E-1,-4.2481586E-1,-1.0823161E-1,-3.167404E-2,8.2774025E-1,2.4922466E-1,-9.346187E-1,-4.2222598E-1,1.5633458E-1,6.065828E-1,1.8807473E0,-2.7653681E-2,-2.2623143E-1,-1.583059E-1,3.6159584E-1,2.4511407E-1,8.435271E-1,-6.330462E-2,7.070359E-1,1.69717E-1,2.9826736E0,-3.968626E-1,8.074262E-3,-1.9484289E-1,3.3852585E-2,-1.9918956E-2,5.903036E-1,-5.0823677E-1,-2.891448E-1,8.734409E-1,-6.019031E-2,-1.0812654E-1,-2.1307535E-1],"split_indices":[0,2,2,1,0,0,2,1,3,2,3,3,1,3,3,2,0,0,0,3,2,3,2,2,2,0,3,0,0,0,3,3,2,1,0,0,1,2,0,1,3,1,3,1,1,3,0,2,0,2,3,3,1,0,0,2,3,3,0,0,0,0,0,0,0,0,0,0,0,0,0,0,0,0,0,0,0,0,0,0,0,0,0,0,0,0,0,0,0,0,0,0,0,0,0,0,0,0,0,0,0,0,0,0,0,0,0,0,0,0,0,0,0,0,0],"split_type":[0,0,0,0,0,0,0,0,0,0,0,0,0,0,0,0,0,0,0,0,0,0,0,0,0,0,0,0,0,0,0,0,0,0,0,0,0,0,0,0,0,0,0,0,0,0,0,0,0,0,0,0,0,0,0,0,0,0,0,0,0,0,0,0,0,0,0,0,0,0,0,0,0,0,0,0,0,0,0,0,0,0,0,0,0,0,0,0,0,0,0,0,0,0,0,0,0,0,0,0,0,0,0,0,0,0,0,0,0,0,0,0,0,0,0],"sum_hessian":[2.321E3,2.63E2,2.058E3,6.7E1,1.96E2,7.87E2,1.271E3,5.9E1,8E0,3.9E1,1.57E2,2.87E2,5E2,6.24E2,6.47E2,5.2E1,7E0,7E0,1E0,1.9E1,2E1,1.03E2,5.4E1,1.01E2,1.86E2,3.62E2,1.38E2,2.93E2,3.31E2,3.2E1,6.15E2,7E0,4.5E1,6E0,1E0,1E0,6E0,1.1E1,8E0,5E0,1.5E1,1.4E1,8.9E1,2.5E1,2.9E1,9.4E1,7E0,1.82E2,4E0,3.22E2,4E1,5.4E1,8.4E1,8.6E1,2.07E2,3.12E2,1.9E1,3.1E1,1E0,2.6E1,5.89E2,3E0,4E0,6E0,3.9E1,3E0,3E0,2E0,4E0,2E0,9E0,6E0,2E0,4E0,1E0,1.2E1,3E0,8E0,6E0,6E0,8.3E1,1.3E1,1.2E1,1.3E1,1.6E1,2.2E1,7.2E1,2E0,5E0,1.4E1,1.68E2,3E0,1E0,1.95E2,1.27E2,1.4E1,2.6E1,4.6E1,8E0,8E1,4E0,8.5E1,1E0,1.9E1,1.88E2,2.51E2,6.1E1,1.2E1,7E0,1.9E1,1.2E1,7E0,1.9E1,1.63E2,4.26E2],"tree_param":{"num_deleted":"0","num_feature":"4","num_nodes":"115","size_leaf_vector":"1"}},{"base_weights":[2.0490842E-2,4.2745727E-1,-1.7471056E-1,8.385368E-1,-1.6508477E-2,5.307787E-1,-2.6990694E-1,9.9149084E-1,-5.673943E-1,-3.3187515E-1,4.1851684E-1,1.2483457E0,-2.2375615E-1,-1.8748714E-1,-5.433669E-1,8.30017E-1,3.5047915E0,-1.6497442E0,1.483212E0,-7.163078E-1,8.596275E-2,1.068609E0,-7.380812E-2,1.0911094E0,5.758969E0,-5.581915E-1,7.470686E-1,1.8701613E-2,-3.0712882E-1,-1.0016165E0,-4.6473837E-1,-6.838143E-2,1.1285588E0,6.758424E0,1.7527772E0,-2.4976673E0,-4.5236143E-1,3.2545757E0,-2.521327E-1,-2.2725965E-1,-1.0267825E0,2.1814342E0,-1.4028108E-1,7.2817945E-1,2.0869403E0,-1.6584112E-1,2.5890737E0,-6.686324E-1,1.1875066E0,2.1608882E0,4.30648E-1,-2.3928827E-1,-1.5996028E0,1.735395E-1,3.571329E0,-6.454623E-2,2.4506617E0,-1.953237E0,-2.8442296E-1,-1.4939365E0,-5.998381E-1,6.6635156E-1,-5.608771E-1,-6.772662E-1,7.738805E-2,2.4268363E-1,6.903877E-1,5.31972E-1,2.5193548E0,-5.576876E-1,8.4318733E-1,-9.3118227E-1,-1.9929977E-1,1.4552575E-1,-5.585414E-1,1.4056532E0,3.029991E-1,-6.3606673E-1,3.8782966E-1,-1.477846E-1,5.8231133E-1,-3.4683812E-1,-1.7350516E-1,-7.9995515E-3,1.31846E0,-9.998957E-2,2.047425E-1,-1.243987E-1,4.09234E-1,1.8512245E0,3.188314E-1,6.093358E-1,-7.2698906E-2,1.3222235E0,-1.5714033E-1,1.3165057E0,2.7394935E-1,-2.0343955E-1,1.8143967E-1,-5.637784E-1,7.160125E-2,-3.8611677E-1,2.9873094E-1,1.482343E0,-8.07169E-2,-2.4079105E-1,2.2906197E-2,1.8069143E0,5.811214E-2,-7.319756E-2,-6.4091814E-1,-1.03077374E-1,5.8069885E-2,-5.9234923E-1,-3.027064E-1,8.656483E-2,-2.6022106E-1,1.2508076E0,3.227487E-2,1.9048335E-1,-1.88405E-1],"categories":[],"categories_nodes":[],"categories_segments":[],"categories_sizes":[],"default_left":[0,0,0,0,0,0,0,0,0,0,0,0,0,0,0,0,0,0,0,0,0,0,0,0,0,0,0,0,0,0,0,0,0,0,0,0,0,0,0,0,0,0,0,0,0,0,0,0,0,0,0,0,0,0,0,0,0,0,0,0,0,0,0,0,0,0,0,0,0,0,0,0,0,0,0,0,0,0,0,0,0,0,0,0,0,0,0,0,0,0,0,0,0,0,0,0,0,0,0,0,0,0,0,0,0,0,0,0,0,0,0,0,0,0,0,0,0,0,0,0,0],"id":5,"left_children":[1,3,5,7,9,11,13,15,17,19,21,23,25,27,29,31,33,35,37,39,41,43,45,47,49,51,53,55,57,59,61,63,65,67,69,71,73,75,77,79,81,83,85,87,89,91,93,-1,95,-1,-1,97,99,101,103,105,107,109,111,113,115,117,119,-1,-1,-1,-1,-1,-1,-1,-1,-1,-1,-1,-1,-1,-1,-1,-1,-1,-1,-1,-1,-1,-1,-1,-1,-1,-1,-1,-1,-1,-1,-1,-1,-1,-1,-1,-1,-1,-1,-1,-1,-1,-1,-1,-1,-1,-1,-1,-1,-1,-1,-1,-1,-1,-1,-1,-1,-1,-1],"loss_changes":[1.8453532E2,1.3744032E2,1.055845E2,8.464429E1,4.9939774E1,1.01526596E2,3.1091438E1,1.4034982E2,8.900638E1,3.3954613E1,4.9047535E1,6.180278E1,3.0287392E1,2.6277988E1,1.1064583E1,8.9390945E1,1.0786261E2,2.5267654E1,4.3855553E1,1.6468742E1,4.866294E1,2.1360558E1,2.1995796E1,3.272928E1,8.389389E0,2.2532784E1,3.825533E1,7.9520706E1,2.4636082E1,8.202847E0,3.0277672E1,6.0593468E1,9.184372E1,4.231842E1,6.2534798E1,1.4610489E1,1.675848E1,1.7750572E1,2.5829014E1,2.6272465E1,3.2174988E0,4.8991978E1,1.4996453E1,3.7630997E1,6.0362053E1,1.4943842E1,1.9289385E1,0E0,7.678038E1,0E0,0E0,2.0412931E1,8.673943E0,2.6501472E1,2.2371902E1,3.9580193E1,1.03648544E2,2.2962723E0,1.8902187E1,2.668312E0,6.6682367E0,4.261361E1,2.0791626E1,0E0,0E0,0E0,0E0,0E0,0E0,0E0,0E0,0E0,0E0,0E0,0E0,0E0,0E0,0E0,0E0,0E0,0E0,0E0,0E0,0E0,0E0,0E0,0E0,0E0,0E0,0E0,0E0,0E0,0E0,0E0,0E0,0E0,0E0,0E0,0E0,0E0,0E0,0E0,0E0,0E0,0E0,0E0,0E0,0E0,0E0,0E0,0E0,0E0,0E0,0E0,0E0,0E0,0E0,0E0,0E0,0E0,0E0],"parents":[2147483647,0,0,1,1,2,2,3,3,4,4,5,5,6,6,7,7,8,8,9,9,10,10,11,11,12,12,13,13,14,14,15,15,16,16,17,17,18,18,19,19,20,20,21,21,22,22,23,23,24,24,25,25,26,26,27,27,28,28,29,29,30,30,31,31,32,32,33,33,34,34,35,35,36,36,37,37,38,38,39,39,40,40,41,41,42,42,43,43,44,44,45,45,46,46,48,48,51,51,52,52,53,53,54,54,55,55,56,56,57,57,58,58,59,59,60,60,61,61,62,62],"right_children":[2,4,6,8,10,12,14,16,18,20,22,24,26,28,30,32,34,36,38,40,42,44,46,48,50,52,54,56,58,60,62,64,66,68,70,72,74,76,78,80,82,84,86,88,90,92,94,-1,96,-1,-1,98,100,102,104,106,108,110,112,114,116,118,120,-1,-1,-1,-1,-1,-1,-1,-1,-1,-1,-1,-1,-1,-1,-1,-1,-1,-1,-1,-1,-1,-1,-1,-1,-1,-1,-1,-1,-1,-1,-1,-1,-1,-1,-1,-1,-1,-1,-1,-1,-1,-1,-1,-1,-1,-1,-1,-1,-1,-1,-1,-1,-1,-1,-1,-1,-1,-1],"split_conditions":[1.6651607E2,1.034375E1,1.1367109E1,3.4999993E0,1.000493E2,9.714584E0,2.3226276E1,2.0000002E0,6.96875E0,1.8025E1,1.3202726E1,9.591666E0,1.0587918E1,8.310417E0,2.4216522E1,5.7787964E1,2.2999997E0,1.8681883E1,1.48257065E1,1.3441071E1,1.8458334E1,2E-1,1.6493147E2,1.6817848E2,9.660417E0,1.0239453E1,2.8928107E2,8.08125E0,8.56875E0,2.3991325E2,2.4798223E1,8.647496E0,2E-1,2.5372736E1,1.35515E1,6.3000007E0,6.0999994E0,9.131249E0,4.0268993E1,1.3138765E1,7.7303764E1,1.5021105E1,2.3308334E1,1.0152064E1,9.721666E0,1.0208816E2,1.2908333E1,-6.686324E-1,1.8598747E2,2.1608882E0,4.30648E-1,9.67657E0,3.238529E2,1.8329168E1,1.9714582E1,2.0213113E2,1E-1,1.1753876E1,2.1072916E1,1.3000002E0,5.7354164E0,1.68125E0,2.1053113E2,-6.772662E-1,7.738805E-2,2.4268363E-1,6.903877E-1,5.31972E-1,2.5193548E0,-5.576876E-1,8.4318733E-1,-9.3118227E-1,-1.9929977E-1,1.4552575E-1,-5.585414E-1,1.4056532E0,3.029991E-1,-6.3606673E-1,3.8782966E-1,-1.477846E-1,5.8231133E-1,-3.4683812E-1,-1.7350516E-1,-7.9995515E-3,1.31846E0,-9.998957E-2,2.047425E-1,-1.243987E-1,4.09234E-1,1.8512245E0,3.188314E-1,6.093358E-1,-7.2698906E-2,1.3222235E0,-1.5714033E-1,1.3165057E0,2.7394935E-1,-2.0343955E-1,1.8143967E-1,-5.637784E-1,7.160125E-2,-3.8611677E-1,2.9873094E-1,1.482343E0,-8.07169E-2,-2.4079105E-1,2.2906197E-2,1.8069143E0,5.811214E-2,-7.319756E-2,-6.4091814E-1,-1.03077374E-1,5.8069885E-2,-5.9234923E-1,-3.027064E-1,8.656483E-2,-2.6022106E-1,1.2508076E0,3.227487E-2,1.9048335E-1,-1.88405E-1],"split_indices":[3,0,2,1,3,0,2,1,0,0,2,0,2,0,2,3,1,2,2,2,0,1,3,3,0,2,3,0,0,3,2,2,1,3,2,1,1,0,3,2,3,2,0,2,2,3,0,0,3,0,0,2,3,0,0,3,1,2,0,1,0,0,3,0,0,0,0,0,0,0,0,0,0,0,0,0,0,0,0,0,0,0,0,0,0,0,0,0,0,0,0,0,0,0,0,0,0,0,0,0,0,0,0,0,0,0,0,0,0,0,0,0,0,0,0,0,0,0,0,0,0],"split_type":[0,0,0,0,0,0,0,0,0,0,0,0,0,0,0,0,0,0,0,0,0,0,0,0,0,0,0,0,0,0,0,0,0,0,0,0,0,0,0,0,0,0,0,0,0,0,0,0,0,0,0,0,0,0,0,0,0,0,0,0,0,0,0,0,0,0,0,0,0,0,0,0,0,0,0,0,0,0,0,0,0,0,0,0,0,0,0,0,0,0,0,0,0,0,0,0,0,0,0,0,0,0,0,0,0,0,0,0,0,0,0,0,0,0,0,0,0,0,0,0,0],"sum_hessian":[2.321E3,7.52E2,1.569E3,3.9E2,3.62E2,1.86E2,1.383E3,3.52E2,3.8E1,2.1E2,1.52E2,9.5E1,9.1E1,1.064E3,3.19E2,3.32E2,2E1,2.5E1,1.3E1,1.09E2,1.01E2,6.5E1,8.7E1,9.3E1,2E0,6.8E1,2.3E1,3.91E2,6.73E2,4.5E1,2.74E2,8.3E1,2.49E2,6E0,1.4E1,1.4E1,1.1E1,6E0,7E0,4.3E1,6.6E1,9E0,9.2E1,5E1,1.5E1,8.5E1,2E0,2E0,9.1E1,1E0,1E0,5.3E1,1.5E1,2E1,3E0,3.79E2,1.2E1,8E0,6.65E2,1.9E1,2.6E1,2.1E1,2.53E2,1E1,7.3E1,1.97E2,5.2E1,2E0,4E0,3E0,1.1E1,1E1,4E0,7E0,4E0,3E0,3E0,3E0,4E0,3.9E1,4E0,5E1,1.6E1,5E0,4E0,7.5E1,1.7E1,1.8E1,3.2E1,2E0,1.3E1,2E0,8.3E1,1E0,1E0,6E0,8.5E1,3.5E1,1.8E1,1.3E1,2E0,7E0,1.3E1,2E0,1E0,6E1,3.19E2,4E0,8E0,1E0,7E0,5.92E2,7.3E1,8E0,1.1E1,6E0,2E1,2E0,1.9E1,1.3E1,2.4E2],"tree_param":{"num_deleted":"0","num_feature":"4","num_nodes":"121","size_leaf_vector":"1"}},{"base_weights":[2.0584274E-2,2.1034756E-1,-2.5615054E-1,5.552897E-1,-3.0055376E-2,-2.7584696E-1,8.352673E-1,1.1620739E0,2.9840994E-1,-5.2055873E-2,2.5105813E0,-7.941539E-1,-2.3398978E-1,6.658869E-1,2.3857157E-1,8.383566E-1,5.300535E0,1.2615614E0,5.291249E-2,-1.382194E0,-1.822996E-2,3.0635166E-1,9.9930084E-1,-9.310342E-1,1.1441209E0,8.8252264E-1,-2.9232436E-1,-1.6145718E-1,7.558375E-1,1.0029594E0,-3.4713047E0,2.0813951E0,9.391052E0,9.5480794E-1,6.9278646E0,-4.523279E-2,2.5675652E0,-1.834346E-1,-2.3463213E0,1.5284376E0,-6.2569536E-2,-3.211484E-1,4.5900667E-1,-1.4008148E0,-6.02401E-1,7.6803243E-1,1.5009725E-1,1.5395807E0,-1.1559021E-1,6.210836E-1,-3.2544258E-1,-7.822855E-1,5.897521E-1,6.4514145E-2,4.914699E-1,-1.2883725E0,9.675694E-2,1.3369157E0,-1.0087153E0,-4.8447277E-2,3.5458684E0,8.996989E-1,1.7233014E-1,-4.245472E-3,2.773976E0,-5.426293E-2,5.45153E-1,1.7339368E0,-1.6576926E-1,4.0533012E-1,-4.2949238E-1,-7.476631E-1,-1.3311493E-1,1.5233744E0,5.5731874E-2,-6.721598E-2,5.021185E-2,-4.738668E-1,-6.8548773E-3,1.375558E-1,-3.2203707E-1,1.10700995E-1,-7.5993136E-2,-1.8852356E-1,6.6641974E-1,-1.076093E-1,3.658539E-1,1.4341305E0,-1.2811329E-2,-1.00844435E-1,3.3936673E-1,1.2433741E-1,-3.1524575E-1,-2.3303933E-1,3.055265E-1],"categories":[],"categories_nodes":[],"categories_segments":[],"categories_sizes":[],"default_left":[0,0,0,0,0,0,0,0,0,0,0,0,0,0,0,0,0,0,0,0,0,0,0,0,0,0,0,0,0,0,0,0,0,0,0,0,0,0,0,0,0,0,0,0,0,0,0,0,0,0,0,0,0,0,0,0,0,0,0,0,0,0,0,0,0,0,0,0,0,0,0,0,0,0,0,0,0,0,0,0,0,0,0,0,0,0,0,0,0,0,0,0,0,0,0],"id":6,"left_children":[1,3,5,7,9,11,13,15,17,19,21,23,25,-1,27,29,31,33,35,37,39,41,-1,43,45,47,49,51,-1,53,55,57,59,61,63,65,67,69,71,73,75,-1,-1,77,79,-1,81,83,85,87,89,91,93,-1,-1,-1,-1,-1,-1,-1,-1,-1,-1,-1,-1,-1,-1,-1,-1,-1,-1,-1,-1,-1,-1,-1,-1,-1,-1,-1,-1,-1,-1,-1,-1,-1,-1,-1,-1,-1,-1,-1,-1,-1,-1],"loss_changes":[1.21991646E2,1.1428749E2,2.054507E1,8.787596E1,4.557354E1,1.9968704E1,1.3513125E1,2.2062439E2,9.427728E1,3.6284264E1,1.1638325E1,1.937172E1,5.6336044E1,0E0,1.2268249E1,1.1485455E2,1.3846887E2,1.3417606E2,7.884576E1,2.2684738E1,5.4135563E1,6.692299E0,0E0,9.191196E0,6.6533575E0,2.837814E1,2.4977242E1,6.057819E0,0E0,7.572975E1,2.0125168E1,1.18415474E2,1.1790094E2,5.8926674E1,6.45173E1,7.813687E1,1.2346433E2,2.1088457E1,1.9474297E0,1.0390333E2,2.8517706E1,0E0,0E0,6.3676834E0,2.0482311E1,0E0,4.4670594E-1,3.9828564E1,6.2797594E0,8.027106E1,1.2715401E1,2.6850815E0,4.3058968E0,0E0,0E0,0E0,0E0,0E0,0E0,0E0,0E0,0E0,0E0,0E0,0E0,0E0,0E0,0E0,0E0,0E0,0E0,0E0,0E0,0E0,0E0,0E0,0E0,0E0,0E0,0E0,0E0,0E0,0E0,0E0,0E0,0E0,0E0,0E0,0E0,0E0,0E0,0E0,0E0,0E0,0E0],"parents":[2147483647,0,0,1,1,2,2,3,3,4,4,5,5,6,6,7,7,8,8,9,9,10,10,11,11,12,12,14,14,15,15,16,16,17,17,18,18,19,19,20,20,21,21,23,23,24,24,25,25,26,26,27,27,29,29,30,30,31,31,32,32,33,33,34,34,35,35,36,36,37,37,38,38,39,39,40,40,43,43,44,44,46,46,47,47,48,48,49,49,50,50,51,51,52,52],"right_children":[2,4,6,8,10,12,14,16,18,20,22,24,26,-1,28,30,32,34,36,38,40,42,-1,44,46,48,50,52,-1,54,56,58,60,62,64,66,68,70,72,74,76,-1,-1,78,80,-1,82,84,86,88,90,92,94,-1,-1,-1,-1,-1,-1,-1,-1,-1,-1,-1,-1,-1,-1,-1,-1,-1,-1,-1,-1,-1,-1,-1,-1,-1,-1,-1,-1,-1,-1,-1,-1,-1,-1,-1,-1,-1,-1,-1,-1,-1,-1],"split_conditions":[1.7518356E1,8.358333E0,2.3308334E1,1.2426471E2,1.7414476E1,8.086552E1,1.069122E2,1.16467384E2,1.0472535E1,8.875E0,1.6817848E2,1.8025E1,1.0957843E2,6.658869E-1,2.8000002E0,1.1393682E2,5.1458335E-1,1.030883E1,8.147918E0,8.672917E0,9.333333E0,1.5337499E1,9.9930084E-1,1E-1,2E-1,1.4379167E1,5.1458335E-1,2.4516665E1,7.558375E-1,1.2496719E1,1E-1,-4.020834E-1,8.694204E0,1.4877586E2,2.9708335E0,1.7077248E1,1E-1,1.4205182E1,3.4081274E2,1.3684735E1,2E-1,-3.211484E-1,4.5900667E-1,7.296436E1,1.9483284E1,7.6803243E-1,2.1170832E1,-3.4895833E0,3E-1,1.337156E2,1.94E1,2.36E1,1.7709044E2,6.4514145E-2,4.914699E-1,-1.2883725E0,9.675694E-2,1.3369157E0,-1.0087153E0,-4.8447277E-2,3.5458684E0,8.996989E-1,1.7233014E-1,-4.245472E-3,2.773976E0,-5.426293E-2,5.45153E-1,1.7339368E0,-1.6576926E-1,4.0533012E-1,-4.2949238E-1,-7.476631E-1,-1.3311493E-1,1.5233744E0,5.5731874E-2,-6.721598E-2,5.021185E-2,-4.738668E-1,-6.8548773E-3,1.375558E-1,-3.2203707E-1,1.10700995E-1,-7.5993136E-2,-1.8852356E-1,6.6641974E-1,-1.076093E-1,3.658539E-1,1.4341305E0,-1.2811329E-2,-1.00844435E-1,3.3936673E-1,1.2433741E-1,-3.1524575E-1,-2.3303933E-1,3.055265E-1],"split_indices":[2,0,0,3,2,3,3,3,2,0,3,0,3,0,1,3,0,2,0,0,0,0,0,1,1,0,0,0,0,2,1,0,2,3,0,2,1,2,3,2,1,0,0,3,2,0,0,0,1,3,1,0,3,0,0,0,0,0,0,0,0,0,0,0,0,0,0,0,0,0,0,0,0,0,0,0,0,0,0,0,0,0,0,0,0,0,0,0,0,0,0,0,0,0,0],"split_type":[0,0,0,0,0,0,0,0,0,0,0,0,0,0,0,0,0,0,0,0,0,0,0,0,0,0,0,0,0,0,0,0,0,0,0,0,0,0,0,0,0,0,0,0,0,0,0,0,0,0,0,0,0,0,0,0,0,0,0,0,0,0,0,0,0,0,0,0,0,0,0,0,0,0,0,0,0,0,0,0,0,0,0,0,0,0,0,0,0,0,0,0,0,0,0],"sum_hessian":[2.321E3,1.377E3,9.44E2,5.65E2,8.12E2,9.28E2,1.6E1,1.67E2,3.98E2,8.06E2,6E0,6.8E1,8.6E2,4E0,1.2E1,1.56E2,1.1E1,8E1,3.18E2,1.9E1,7.87E2,2E0,4E0,6.4E1,4E0,4.2E1,8.18E2,1.1E1,1E0,1.51E2,5E0,7E0,4E0,7.7E1,3E0,3.07E2,1.1E1,9E0,1E1,2.1E1,7.66E2,1E0,1E0,2.5E1,3.9E1,1E0,3E0,2.5E1,1.7E1,2.8E1,7.9E2,6E0,5E0,6.8E1,8.3E1,4E0,1E0,5E0,2E0,1E0,3E0,1.1E1,6.6E1,1E0,2E0,2.87E2,2E1,5E0,6E0,4E0,5E0,9E0,1E0,5E0,1.6E1,4.5E2,3.16E2,2.2E1,3E0,1.2E1,2.7E1,2E0,1E0,6E0,1.9E1,1.5E1,2E0,3E0,2.5E1,7.85E2,5E0,1E0,5E0,1E0,4E0],"tree_param":{"num_deleted":"0","num_feature":"4","num_nodes":"95","size_leaf_vector":"1"}},{"base_weights":[2.0749165E-2,5.716168E-1,-4.1847374E-2,-1.5892924E-1,9.591246E-1,1.5217665E-1,-1.6438808E-1,1.9975241E0,-3.5290644E-1,1.3894367E0,-2.9059501E-2,2.0325553E-1,-5.647999E-1,-4.9245122E-1,-1.1870993E-1,3.578919E-1,3.1377754E0,-1.4433833E0,-1.2938175E-1,8.609743E-1,3.0230114E0,-1.4465675E0,3.3514923E-1,4.1581744E-1,1.7549958E-2,1.1031438E0,-7.2029823E-1,-1.2235796E0,-2.0340611E-1,8.563531E-1,-1.6395128E-1,2.2507702E-1,-1.22880384E-1,1.4645433E0,2.7874792E-1,-1.516879E-1,-2.231732E0,-1.0918E0,1.3221899E-1,1.9463494E0,-9.881678E-2,5.713164E0,3.0908364E-1,-7.8791827E-1,9.7977054E-1,1.6085614E0,-4.4230407E-1,3.6370265E-1,3.9598427E0,-9.694621E-2,6.5068924E-1,4.004231E-1,5.87104E-1,-1.5673404E0,-3.4735578E-1,-3.9119537E0,-5.174977E-1,3.10734E0,-3.8545305E-1,2.1704957E0,1.7409499E-1,-9.109711E-2,-3.394372E-1,3.365058E-1,-3.2063892E-1,-8.4487283E-1,-2.8294817E-1,-5.347499E-1,-2.4844255E-1,1.6355792E-1,-2.4931416E-1,1.1720464E0,2.4475531E-1,-1.9327925E-1,1.3180846E0,2.094949E0,-2.543663E-1,-3.7684265E-1,6.1612755E-1,4.5397812E-1,-9.310484E-2,-2.2104385E-1,6.7689186E-1,1.0360437E-1,-2.3033975E-1,-1.4107864E-1,1.4298327E-1,1.4627702E0,4.4341564E-2,-3.859191E-2,5.1138335E-1,1.1834819E0,6.818655E-2,-3.3614695E-2,1.8257904E-1,1.117703E-1,-5.197552E-1,6.054079E-2,-2.7231765E-1,3.2904483E-2,-1.5229985E0,1.9563664E-1,-3.87433E-1,1.4141393E0,-2.1114875E-2,1.7585084E-1,-1.7202193E-1,1.168386E-1,1.6112442E0,-1.0589351E-1,5.032222E-1,-4.583903E-2,2.753398E-1,-1.3498567E-1,3.843489E-2],"categories":[],"categories_nodes":[],"categories_segments":[],"categories_sizes":[],"default_left":[0,0,0,0,0,0,0,0,0,0,0,0,0,0,0,0,0,0,0,0,0,0,0,0,0,0,0,0,0,0,0,0,0,0,0,0,0,0,0,0,0,0,0,0,0,0,0,0,0,0,0,0,0,0,0,0,0,0,0,0,0,0,0,0,0,0,0,0,0,0,0,0,0,0,0,0,0,0,0,0,0,0,0,0,0,0,0,0,0,0,0,0,0,0,0,0,0,0,0,0,0,0,0,0,0,0,0,0,0,0,0,0,0,0,0],"id":7,"left_children":[1,3,5,7,9,11,13,15,17,19,21,23,25,27,29,31,33,35,37,39,41,43,45,47,49,51,53,55,57,59,61,-1,-1,-1,-1,63,65,67,69,71,73,75,77,-1,79,81,83,85,87,89,91,93,-1,95,97,99,101,103,105,107,109,111,113,-1,-1,-1,-1,-1,-1,-1,-1,-1,-1,-1,-1,-1,-1,-1,-1,-1,-1,-1,-1,-1,-1,-1,-1,-1,-1,-1,-1,-1,-1,-1,-1,-1,-1,-1,-1,-1,-1,-1,-1,-1,-1,-1,-1,-1,-1,-1,-1,-1,-1,-1,-1],"loss_changes":[8.009207E1,6.72453E1,4.962142E1,3.5424072E1,6.595065E1,2.9705667E1,1.9107761E1,1.1964163E1,1.8581886E1,9.063182E1,2.5265722E1,2.9795519E1,1.4800171E1,3.2718456E1,4.9723595E1,1.5118555E0,1.0871639E1,1.2899456E1,1.6509363E1,8.665619E1,1.88057E2,3.119984E1,3.9322197E1,6.3572815E1,2.9349861E1,2.216525E0,1.5250473E1,8.149692E1,6.930411E1,4.445135E1,1.3712828E1,0E0,0E0,0E0,0E0,8.205786E0,3.3693047E0,1.0733585E0,2.1138885E1,8.324872E1,1.13098E2,1.14243835E2,4.081115E1,0E0,3.222703E0,2.4450531E1,6.6745787E0,3.2992313E1,1.6739555E1,1.9803764E1,8.558023E1,4.949255E-1,0E0,5.4518967E0,1.1261523E1,4.2713074E1,3.343017E1,3.0961025E1,2.0059034E1,9.480614E1,2.753219E1,4.751139E1,1.6334225E1,0E0,0E0,0E0,0E0,0E0,0E0,0E0,0E0,0E0,0E0,0E0,0E0,0E0,0E0,0E0,0E0,0E0,0E0,0E0,0E0,0E0,0E0,0E0,0E0,0E0,0E0,0E0,0E0,0E0,0E0,0E0,0E0,0E0,0E0,0E0,0E0,0E0,0E0,0E0,0E0,0E0,0E0,0E0,0E0,0E0,0E0,0E0,0E0,0E0,0E0,0E0,0E0],"parents":[2147483647,0,0,1,1,2,2,3,3,4,4,5,5,6,6,7,7,8,8,9,9,10,10,11,11,12,12,13,13,14,14,15,15,16,16,17,17,18,18,19,19,20,20,21,21,22,22,23,23,24,24,25,25,26,26,27,27,28,28,29,29,30,30,35,35,36,36,37,37,38,38,39,39,40,40,41,41,42,42,44,44,45,45,46,46,47,47,48,48,49,49,50,50,51,51,53,53,54,54,55,55,56,56,57,57,58,58,59,59,60,60,61,61,62,62],"right_children":[2,4,6,8,10,12,14,16,18,20,22,24,26,28,30,32,34,36,38,40,42,44,46,48,50,52,54,56,58,60,62,-1,-1,-1,-1,64,66,68,70,72,74,76,78,-1,80,82,84,86,88,90,92,94,-1,96,98,100,102,104,106,108,110,112,114,-1,-1,-1,-1,-1,-1,-1,-1,-1,-1,-1,-1,-1,-1,-1,-1,-1,-1,-1,-1,-1,-1,-1,-1,-1,-1,-1,-1,-1,-1,-1,-1,-1,-1,-1,-1,-1,-1,-1,-1,-1,-1,-1,-1,-1,-1,-1,-1,-1,-1,-1,-1],"split_conditions":[9.541666E-1,-2.0541668E0,1.4773164E1,3.4492035E1,1.7309973E1,3.2160126E2,1.57908325E1,-5.633333E0,7.4094696E1,1.1E0,9.19171E1,1.1625E1,8.647496E0,7.1312504E0,1.6167967E1,1E-1,-4.222916E0,-6.3562503E0,-6.3562503E0,-8.333385E-3,2.2999997E0,1.6999999E0,2.2377371E2,1.1577086E1,2.0000002E0,1.1870833E1,1.0606251E1,1.3478487E2,7.5833325E0,1.6131752E2,2.666752E2,2.2507702E-1,-1.22880384E-1,1.4645433E0,2.7874792E-1,9.387651E0,1.4773164E1,8.78872E0,-2.5479167E0,1.26829185E2,8.2916665E-1,1.7163355E1,3.7999997E0,-7.8791827E-1,5.1999993E0,-7.895834E-1,2.4567534E2,8.78872E0,1.1995349E1,1.4634343E1,2.3E0,3.4276843E2,5.87104E-1,1.2062501E0,1.5799998E1,4.8406467E1,2.2311592E2,1.5146761E1,6.3446667E1,1.5990646E1,3E0,2.6253378E2,3.9E0,3.365058E-1,-3.2063892E-1,-8.4487283E-1,-2.8294817E-1,-5.347499E-1,-2.4844255E-1,1.6355792E-1,-2.4931416E-1,1.1720464E0,2.4475531E-1,-1.9327925E-1,1.3180846E0,2.094949E0,-2.543663E-1,-3.7684265E-1,6.1612755E-1,4.5397812E-1,-9.310484E-2,-2.2104385E-1,6.7689186E-1,1.0360437E-1,-2.3033975E-1,-1.4107864E-1,1.4298327E-1,1.4627702E0,4.4341564E-2,-3.859191E-2,5.1138335E-1,1.1834819E0,6.818655E-2,-3.3614695E-2,1.8257904E-1,1.117703E-1,-5.197552E-1,6.054079E-2,-2.7231765E-1,3.2904483E-2,-1.5229985E0,1.9563664E-1,-3.87433E-1,1.4141393E0,-2.1114875E-2,1.7585084E-1,-1.7202193E-1,1.168386E-1,1.6112442E0,-1.0589351E-1,5.032222E-1,-4.583903E-2,2.753398E-1,-1.3498567E-1,3.843489E-2],"split_indices":[0,0,2,3,2,3,2,0,3,1,3,0,2,0,2,1,0,0,0,0,1,1,3,0,1,0,0,3,0,3,3,0,0,0,0,2,2,2,0,3,0,2,1,0,1,0,3,2,2,2,1,3,0,0,0,3,3,2,3,2,1,3,1,0,0,0,0,0,0,0,0,0,0,0,0,0,0,0,0,0,0,0,0,0,0,0,0,0,0,0,0,0,0,0,0,0,0,0,0,0,0,0,0,0,0,0,0,0,0,0,0,0,0,0,0],"split_type":[0,0,0,0,0,0,0,0,0,0,0,0,0,0,0,0,0,0,0,0,0,0,0,0,0,0,0,0,0,0,0,0,0,0,0,0,0,0,0,0,0,0,0,0,0,0,0,0,0,0,0,0,0,0,0,0,0,0,0,0,0,0,0,0,0,0,0,0,0,0,0,0,0,0,0,0,0,0,0,0,0,0,0,0,0,0,0,0,0,0,0,0,0,0,0,0,0,0,0,0,0,0,0,0,0,0,0,0,0,0,0,0,0,0,0],"sum_hessian":[2.321E3,2.36E2,2.085E3,8.2E1,1.54E2,8.07E2,1.278E3,6E0,7.6E1,1.07E2,4.7E1,7.54E2,5.3E1,1.55E2,1.123E3,3E0,3E0,1.2E1,6.4E1,8.2E1,2.5E1,9E0,3.8E1,3.51E2,4.03E2,4E0,4.9E1,4.3E1,1.12E2,4.9E1,1.074E3,2E0,1E0,1E0,2E0,5E0,7E0,1.3E1,5.1E1,3.8E1,4.4E1,1.2E1,1.3E1,6E0,3E0,1.4E1,2.4E1,3.47E2,4E0,3.42E2,6.1E1,3E0,1E0,1.4E1,3.5E1,8E0,3.5E1,5E0,1.07E2,1.6E1,3.3E1,7.6E2,3.14E2,2E0,3E0,4E0,3E0,2E0,1.1E1,3.6E1,1.5E1,1.3E1,2.5E1,4E1,4E0,1E1,2E0,7E0,6E0,2E0,1E0,3E0,1.1E1,7E0,1.7E1,4.1E1,3.06E2,3E0,1E0,3.37E2,5E0,6E0,5.5E1,1E0,2E0,1E0,1.3E1,1.8E1,1.7E1,2E0,6E0,1.4E1,2.1E1,3E0,2E0,1.7E1,9E1,1.1E1,5E0,2.5E1,8E0,7.17E2,4.3E1,2.54E2,6E1],"tree_param":{"num_deleted":"0","num_feature":"4","num_nodes":"115","size_leaf_vector":"1"}},{"base_weights":[1.870665E-2,4.9781406E-1,-2.009437E-2,-1.12881966E-1,1.043357E0,4.833359E-1,-4.8011664E-2,1.6619079E0,-2.727605E-1,2.3056228E0,6.137074E-1,-9.05044E-1,7.559241E-1,-1.7511568E0,-3.36616E-2,2.7607343E-1,2.6322656E0,-7.083058E-1,1.070583E-1,4.6302167E-1,3.4570792E0,1.2091764E0,-1.1737128E0,5.4947633E-2,-2.231901E0,1.7509308E0,3.1706475E-2,-2.615685E0,-8.8441855E-1,1.23438336E-1,-1.1183752E-1,1.8006158E-1,-1.0444832E-1,1.2448618E0,2.2299829E-1,-1.0795913E0,1.3280535E0,2.101187E0,-4.2394805E-1,1.383463E0,-1.1505516E0,1.1018434E0,3.9992487E0,-1.5007023E0,1.5227201E0,-1.611476E-1,-1.4515066E0,8.52475E-1,-4.5670864E-1,-2.939209E0,-7.3318124E-2,2.1997362E-1,6.999786E0,1.3238465E0,-3.5078275E-1,-1.2523675E0,-1.4003011E0,2.7876664E-2,-1.0033367E0,-1.0378102E0,1.7365775E-1,-1.2614352E0,-9.97162E-2,-1.01843774E-1,-4.78577E-1,-1.0023365E-1,1.4458323E0,1.5518858E0,1.4536393E-1,-4.7827572E-1,-7.611133E-4,-5.876535E-1,4.4235885E-2,-2.7057934E-1,1.0669751E0,8.236199E-2,1.3032796E0,1.086927E-1,-5.837299E-1,5.282107E-1,-2.6281998E-1,-2.0166658E-1,2.8247246E-1,-4.678891E-1,-1.6055295E-1,-2.807063E-1,1.8462794E-1,-1.0595613E0,-3.5077706E-1,-1.5216865E-1,1.19175486E-1,1.6147918E-1,-9.1087615E-1,2.6018322E0,2.2886616E-1,6.419909E-2,1.4856038E0,1.8305413E-1,-2.3203517E-1,-6.053867E-1,-1.7609547E-1,-3.759258E-1,-1.1336355E-1,-7.665395E-1,-9.093752E-2,6.869551E-1,3.6923055E-2,-7.499584E-1,-2.0892677E-1,4.8665926E-3,-6.119544E-2],"categories":[],"categories_nodes":[],"categories_segments":[],"categories_sizes":[],"default_left":[0,0,0,0,0,0,0,0,0,0,0,0,0,0,0,0,0,0,0,0,0,0,0,0,0,0,0,0,0,0,0,0,0,0,0,0,0,0,0,0,0,0,0,0,0,0,0,0,0,0,0,0,0,0,0,0,0,0,0,0,0,0,0,0,0,0,0,0,0,0,0,0,0,0,0,0,0,0,0,0,0,0,0,0,0,0,0,0,0,0,0,0,0,0,0,0,0,0,0,0,0,0,0,0,0,0,0,0,0,0,0],"id":8,"left_children":[1,3,5,7,9,11,13,15,17,19,21,23,25,27,29,31,33,35,37,39,41,43,45,47,49,51,53,55,57,59,61,-1,-1,-1,-1,63,65,67,69,-1,71,73,75,77,79,81,83,-1,85,87,89,91,93,95,97,-1,99,-1,101,103,105,107,109,-1,-1,-1,-1,-1,-1,-1,-1,-1,-1,-1,-1,-1,-1,-1,-1,-1,-1,-1,-1,-1,-1,-1,-1,-1,-1,-1,-1,-1,-1,-1,-1,-1,-1,-1,-1,-1,-1,-1,-1,-1,-1,-1,-1,-1,-1,-1,-1],"loss_changes":[4.317565E1,5.8087784E1,3.0226133E1,2.4004622E1,4.847956E1,4.344967E1,4.9725826E1,8.686586E0,1.2813807E1,4.719783E1,7.5923965E1,2.4324299E1,6.840161E1,1.0425076E1,2.483458E1,1.0183053E0,8.379677E0,2.8652294E1,4.5364384E1,7.224525E1,1.3470566E1,4.7317413E1,4.829212E0,1.8407372E1,1.1998768E1,3.198911E2,2.8141243E1,9.311398E0,1.2554679E0,3.9369392E1,1.868598E1,0E0,0E0,0E0,0E0,1.1289597E1,3.642982E1,4.2186928E1,1.6764046E1,0E0,8.682184E0,2.2882774E1,1.2943283E1,5.679925E0,2.8944168E1,3.4508126E0,5.524006E-1,0E0,6.224678E0,2.1642342E0,8.140531E-1,3.479992E1,8.729193E1,5.128762E1,1.8343346E1,0E0,1.8295822E0,0E0,9.323559E-1,3.0438578E1,6.875828E1,8.05521E0,1.6165913E1,0E0,0E0,0E0,0E0,0E0,0E0,0E0,0E0,0E0,0E0,0E0,0E0,0E0,0E0,0E0,0E0,0E0,0E0,0E0,0E0,0E0,0E0,0E0,0E0,0E0,0E0,0E0,0E0,0E0,0E0,0E0,0E0,0E0,0E0,0E0,0E0,0E0,0E0,0E0,0E0,0E0,0E0,0E0,0E0,0E0,0E0,0E0,0E0],"parents":[2147483647,0,0,1,1,2,2,3,3,4,4,5,5,6,6,7,7,8,8,9,9,10,10,11,11,12,12,13,13,14,14,15,15,16,16,17,17,18,18,19,19,20,20,21,21,22,22,23,23,24,24,25,25,26,26,27,27,28,28,29,29,30,30,35,35,36,36,37,37,38,38,40,40,41,41,42,42,43,43,44,44,45,45,46,46,48,48,49,49,50,50,51,51,52,52,53,53,54,54,56,56,58,58,59,59,60,60,61,61,62,62],"right_children":[2,4,6,8,10,12,14,16,18,20,22,24,26,28,30,32,34,36,38,40,42,44,46,48,50,52,54,56,58,60,62,-1,-1,-1,-1,64,66,68,70,-1,72,74,76,78,80,82,84,-1,86,88,90,92,94,96,98,-1,100,-1,102,104,106,108,110,-1,-1,-1,-1,-1,-1,-1,-1,-1,-1,-1,-1,-1,-1,-1,-1,-1,-1,-1,-1,-1,-1,-1,-1,-1,-1,-1,-1,-1,-1,-1,-1,-1,-1,-1,-1,-1,-1,-1,-1,-1,-1,-1,-1,-1,-1,-1,-1],"split_conditions":[2.6041666E-1,-2.0541668E0,9.387651E0,3.4492035E1,1.1367109E1,5.929264E1,9.531505E0,-5.633333E0,1.2820708E2,9.387651E0,2.5129251E2,4.342811E1,7.53125E0,1.6108332E1,1.8378601E2,1E-1,-4.222916E0,2.0620804E1,1.4877586E2,-1.2312499E0,4.5757748E1,1.4325834E1,2.680464E2,8.2916665E-1,8.808333E0,8.78872E0,1.0426454E2,9.449572E0,1.5464826E0,1.0041354E1,1.8598747E2,1.8006158E-1,-1.0444832E-1,1.2448618E0,2.2299829E-1,-4.222916E0,-5.633333E0,1.030883E1,9.531505E0,1.383463E0,2.3214583E2,1.3958324E-1,-1.6333333E0,-4.020834E-1,2.2553934E1,-4.020834E-1,2.0523157E1,8.52475E-1,1.4166665E1,8.694204E0,1.3483333E1,8.694204E0,9.220499E0,9.808615E1,8.427383E0,-1.2523675E0,2.8854172E0,2.7876664E-2,1.8897917E1,9.714584E0,1.044E1,5.93125E0,6E-1,-1.01843774E-1,-4.78577E-1,-1.0023365E-1,1.4458323E0,1.5518858E0,1.4536393E-1,-4.7827572E-1,-7.611133E-4,-5.876535E-1,4.4235885E-2,-2.7057934E-1,1.0669751E0,8.236199E-2,1.3032796E0,1.086927E-1,-5.837299E-1,5.282107E-1,-2.6281998E-1,-2.0166658E-1,2.8247246E-1,-4.678891E-1,-1.6055295E-1,-2.807063E-1,1.8462794E-1,-1.0595613E0,-3.5077706E-1,-1.5216865E-1,1.19175486E-1,1.6147918E-1,-9.1087615E-1,2.6018322E0,2.2886616E-1,6.419909E-2,1.4856038E0,1.8305413E-1,-2.3203517E-1,-6.053867E-1,-1.7609547E-1,-3.759258E-1,-1.1336355E-1,-7.665395E-1,-9.093752E-2,6.869551E-1,3.6923055E-2,-7.499584E-1,-2.0892677E-1,4.8665926E-3,-6.119544E-2],"split_indices":[0,0,2,3,2,3,2,0,3,2,3,3,0,0,3,1,0,2,3,0,3,3,3,0,0,2,3,2,3,2,3,0,0,0,0,0,0,2,2,0,3,0,0,0,2,0,2,0,0,2,0,2,2,3,2,0,0,0,0,0,2,0,1,0,0,0,0,0,0,0,0,0,0,0,0,0,0,0,0,0,0,0,0,0,0,0,0,0,0,0,0,0,0,0,0,0,0,0,0,0,0,0,0,0,0,0,0,0,0,0,0],"split_type":[0,0,0,0,0,0,0,0,0,0,0,0,0,0,0,0,0,0,0,0,0,0,0,0,0,0,0,0,0,0,0,0,0,0,0,0,0,0,0,0,0,0,0,0,0,0,0,0,0,0,0,0,0,0,0,0,0,0,0,0,0,0,0,0,0,0,0,0,0,0,0,0,0,0,0,0,0,0,0,0,0,0,0,0,0,0,0,0,0,0,0,0,0,0,0,0,0,0,0,0,0,0,0,0,0,0,0,0,0,0,0],"sum_hessian":[2.321E3,1.73E2,2.148E3,8.2E1,9.1E1,1.12E2,2.036E3,6E0,7.6E1,2.2E1,6.9E1,1.8E1,9.4E1,1.6E1,2.02E3,3E0,3E0,3.5E1,4.1E1,9E0,1.3E1,5.2E1,1.7E1,1.1E1,7E0,3.9E1,5.5E1,7E0,9E0,6.71E2,1.349E3,2E0,1E0,1E0,2E0,3E1,5E0,8E0,3.3E1,2E0,7E0,3E0,1E1,5E0,4.7E1,4E0,1.3E1,1E0,1E1,5E0,2E0,3.1E1,8E0,1.2E1,4.3E1,2E0,5E0,1E0,8E0,2.7E1,6.44E2,1.3E1,1.336E3,1.3E1,1.7E1,4E0,1E0,2E0,6E0,8E0,2.5E1,4E0,3E0,2E0,1E0,1E0,9E0,1E0,4E0,4.3E1,4E0,3E0,1E0,1.1E1,2E0,7E0,3E0,3E0,2E0,1E0,1E0,2.9E1,2E0,6E0,2E0,1E1,2E0,1.3E1,3E1,2E0,3E0,5E0,3E0,8E0,1.9E1,1.4E1,6.3E2,3E0,1E1,6.33E2,7.03E2],"tree_param":{"num_deleted":"0","num_feature":"4","num_nodes":"111","size_leaf_vector":"1"}},{"base_weights":[1.5266368E-2,3.201404E-1,-2.3831258E-2,9.629677E-1,9.662571E-2,1.0838623E-1,-8.246464E-2,5.277137E-1,3.7576642E0,-8.2997537E-1,2.2996907E-1,-1.3364669E0,1.6505523E-1,-1.2419416E0,-5.6676347E-2,7.806737E-1,-1.2141103E0,4.4454985E0,-2.6175177E-1,3.0554736E-1,-2.8826323E0,2.396456E0,1.104033E-1,-2.1127365E0,1.3444643E0,4.314395E-1,-3.6738195E-2,-2.2891963E0,-6.3423955E-1,9.546951E-1,-7.2059155E-2,2.8427808E0,4.5694128E-1,-1.5894378E0,2.119775E-1,1.4363282E0,1.7891206E0,-5.4435223E-1,1.1214973E0,-2.0681635E-1,-9.2118436E-1,2.7893822E0,3.7152803E-1,-1.0717992E0,2.808574E-1,-1.4775915E0,-1.0343645E0,-4.9068114E-1,9.7301984E-1,1.2255023E0,6.49276E-2,-5.509775E-1,1.1633201E-1,1.12005405E-1,-2.592786E0,-9.5396835E-1,5.796862E-1,3.522106E0,-6.775236E-2,1.1022933E-1,-1.2556548E-1,1.4762743E-1,1.3448327E0,-1.9828273E-1,3.1657028E-1,-1.727726E-1,-6.616823E-1,1.0683375E-1,7.015463E-1,1.5741706E-1,-2.2307314E-1,6.249033E-1,-1.8034427E-1,-4.521478E-1,5.400517E-1,-9.7842E-2,-5.578231E-1,9.211937E-1,4.1503184E-2,6.9836926E-1,-4.3224135E-1,2.6757428E-1,1.6073691E0,-7.279728E-2,1.601843E-1,-2.1271102E-1,1.1226664E0,2.2433424E0,1.8288467E-2,-3.2063678E-1,-9.2797303E-1,7.3684845E-3,-3.4962234E-1,-1.1961045E-1,6.739856E-1,3.316217E-1,1.3362314E0,-8.5793436E-2,2.919656E-1,-8.348848E-3,3.5198653E-1,-1.9571818E-1,-2.3585996E-2],"categories":[],"categories_nodes":[],"categories_segments":[],"categories_sizes":[],"default_left":[0,0,0,0,0,0,0,0,0,0,0,0,0,0,0,0,0,0,0,0,0,0,0,0,0,0,0,0,0,0,0,0,0,0,0,0,0,0,0,0,0,0,0,0,0,0,0,0,0,0,0,0,0,0,0,0,0,0,0,0,0,0,0,0,0,0,0,0,0,0,0,0,0,0,0,0,0,0,0,0,0,0,0,0,0,0,0,0,0,0,0,0,0,0,0,0,0,0,0,0,0,0,0],"id":9,"left_children":[1,3,5,7,9,11,13,15,17,19,21,23,25,27,29,31,33,35,-1,37,39,41,43,45,47,49,51,53,55,57,59,61,63,65,-1,67,-1,69,71,-1,-1,-1,73,75,77,-1,79,-1,-1,81,83,85,87,-1,89,91,93,95,97,99,101,-1,-1,-1,-1,-1,-1,-1,-1,-1,-1,-1,-1,-1,-1,-1,-1,-1,-1,-1,-1,-1,-1,-1,-1,-1,-1,-1,-1,-1,-1,-1,-1,-1,-1,-1,-1,-1,-1,-1,-1,-1,-1],"loss_changes":[2.7685522E1,3.783882E1,1.5971046E1,8.073241E1,2.453142E1,5.2049606E1,4.2598244E1,2.738453E1,3.254184E1,5.9151737E1,4.4548943E1,5.2787502E1,3.280615E1,1.827708E1,2.1802946E1,3.4082275E1,6.8902235E0,2.7983185E1,0E0,1.2399572E1,1.5937729E0,1.2232063E2,3.355039E1,5.2532333E1,3.9258656E1,7.646223E1,2.7456818E1,9.859573E0,8.7036705E0,5.5364525E1,1.3444529E1,2.4779884E1,3.2132076E1,3.1013126E0,0E0,3.065343E0,0E0,2.3070512E0,1.6159315E1,0E0,0E0,0E0,2.4184954E1,1.1726652E1,5.722464E1,0E0,2.3852413E1,0E0,0E0,1.09638145E2,2.6241283E1,5.693973E1,1.0919077E2,0E0,4.3209305E0,3.5459194E0,9.050261E0,8.590576E0,3.912986E0,4.5969994E1,2.6288532E1,0E0,0E0,0E0,0E0,0E0,0E0,0E0,0E0,0E0,0E0,0E0,0E0,0E0,0E0,0E0,0E0,0E0,0E0,0E0,0E0,0E0,0E0,0E0,0E0,0E0,0E0,0E0,0E0,0E0,0E0,0E0,0E0,0E0,0E0,0E0,0E0,0E0,0E0,0E0,0E0,0E0,0E0],"parents":[2147483647,0,0,1,1,2,2,3,3,4,4,5,5,6,6,7,7,8,8,9,9,10,10,11,11,12,12,13,13,14,14,15,15,16,16,17,17,19,19,20,20,21,21,22,22,23,23,24,24,25,25,26,26,27,27,28,28,29,29,30,30,31,31,32,32,33,33,35,35,37,37,38,38,42,42,43,43,44,44,46,46,49,49,50,50,51,51,52,52,54,54,55,55,56,56,57,57,58,58,59,59,60,60],"right_children":[2,4,6,8,10,12,14,16,18,20,22,24,26,28,30,32,34,36,-1,38,40,42,44,46,48,50,52,54,56,58,60,62,64,66,-1,68,-1,70,72,-1,-1,-1,74,76,78,-1,80,-1,-1,82,84,86,88,-1,90,92,94,96,98,100,102,-1,-1,-1,-1,-1,-1,-1,-1,-1,-1,-1,-1,-1,-1,-1,-1,-1,-1,-1,-1,-1,-1,-1,-1,-1,-1,-1,-1,-1,-1,-1,-1,-1,-1,-1,-1,-1,-1,-1,-1,-1,-1],"split_conditions":[1.2062501E0,1.1525623E1,1.3920647E1,8.000001E-1,1.243434E1,2.1270835E0,1.4081477E1,4E-1,3.4902774E2,-4.020834E-1,1.27279215E1,1E-1,1.5262505E2,8.95625E0,1.4156058E1,4.342811E1,5.8124983E-1,-1.2312499E0,-2.6175177E-1,-2.8270833E0,-8.333385E-3,5.929264E1,1.35515E1,1.2551233E2,1.0948973E1,8.95625E0,6.737499E0,3.6395833E0,1.405845E1,6.737499E0,6.0395837E0,1.8298832E1,1.2551233E2,5E-1,2.119775E-1,1.1298495E1,1.7891206E0,8.245357E1,-1.6333333E0,-2.0681635E-1,-9.2118436E-1,2.7893822E0,1.16467384E2,1.3138765E1,1.375558E1,-1.4775915E0,1.3125897E2,-4.9068114E-1,9.7301984E-1,1.3608762E1,9.808615E1,1.3830749E1,6.7812505E0,1.12005405E-1,1.4007655E1,1.1577086E1,2.0108334E1,5.5687504E0,2.3881248E1,5.6875E0,7.1312504E0,1.4762743E-1,1.3448327E0,-1.9828273E-1,3.1657028E-1,-1.727726E-1,-6.616823E-1,1.0683375E-1,7.015463E-1,1.5741706E-1,-2.2307314E-1,6.249033E-1,-1.8034427E-1,-4.521478E-1,5.400517E-1,-9.7842E-2,-5.578231E-1,9.211937E-1,4.1503184E-2,6.9836926E-1,-4.3224135E-1,2.6757428E-1,1.6073691E0,-7.279728E-2,1.601843E-1,-2.1271102E-1,1.1226664E0,2.2433424E0,1.8288467E-2,-3.2063678E-1,-9.2797303E-1,7.3684845E-3,-3.4962234E-1,-1.1961045E-1,6.739856E-1,3.316217E-1,1.3362314E0,-8.5793436E-2,2.919656E-1,-8.348848E-3,3.5198653E-1,-1.9571818E-1,-2.3585996E-2],"split_indices":[0,2,2,1,2,0,2,1,3,0,2,1,3,0,2,3,0,0,0,0,0,3,2,3,2,0,0,0,2,0,0,3,3,1,0,2,0,3,0,0,0,0,3,2,2,0,3,0,0,2,3,2,0,0,2,0,0,0,0,0,0,0,0,0,0,0,0,0,0,0,0,0,0,0,0,0,0,0,0,0,0,0,0,0,0,0,0,0,0,0,0,0,0,0,0,0,0,0,0,0,0,0,0],"split_type":[0,0,0,0,0,0,0,0,0,0,0,0,0,0,0,0,0,0,0,0,0,0,0,0,0,0,0,0,0,0,0,0,0,0,0,0,0,0,0,0,0,0,0,0,0,0,0,0,0,0,0,0,0,0,0,0,0,0,0,0,0,0,0,0,0,0,0,0,0,0,0,0,0,0,0,0,0,0,0,0,0,0,0,0,0,0,0,0,0,0,0,0,0,0,0,0,0,0,0,0,0,0,0],"sum_hessian":[2.321E3,2.63E2,2.058E3,6.7E1,1.96E2,6.32E2,1.426E3,5.9E1,8E0,2.4E1,1.72E2,2.3E1,6.09E2,3E1,1.396E3,5.2E1,7E0,7E0,1E0,1.6E1,8E0,8E0,1.64E2,1.8E1,5E0,2.62E2,3.47E2,1E1,2E1,2E1,1.376E3,6E0,4.6E1,6E0,1E0,3E0,4E0,8E0,8E0,1E0,7E0,1E0,7E0,2E1,1.44E2,4E0,1.4E1,2E0,3E0,8.2E1,1.8E2,7.9E1,2.68E2,1E0,9E0,1.6E1,4E0,5E0,1.5E1,3.12E2,1.064E3,3E0,3E0,1.6E1,3E1,3E0,3E0,2E0,1E0,1E0,7E0,5E0,3E0,3E0,4E0,1.1E1,9E0,6E0,1.38E2,1E0,1.3E1,7.7E1,5E0,1.09E2,7.1E1,7.7E1,2E0,1E0,2.67E2,3E0,6E0,3E0,1.3E1,3E0,1E0,2E0,3E0,1.3E1,2E0,2.77E2,3.5E1,8.6E1,9.78E2],"tree_param":{"num_deleted":"0","num_feature":"4","num_nodes":"103","size_leaf_vector":"1"}},{"base_weights":[1.5526217E-2,6.984487E-2,-1.3435861E-1,1.8933472E-1,-4.6138175E-2,-6.824426E-1,-1.0425121E-1,1.765953E-1,8.423171E-1,-1.2915212E-1,2.6225674E-1,-3.3205122E-1,-1.5409926E0,5.624624E-1,-1.361532E-1,1.6459097E-1,2.141198E0,-9.378995E-2,-1.0191197E0,1.16626605E-1,1.0366031E0,-5.905285E-1,5.0223976E-1,-5.488973E-1,-1.06133014E-1,1.7577052E0,-3.6912367E-1,-1.0697986E0,-1.0854427E-1,1.8195851E-1,-1.0388019E0,-2.1916664E-1,3.0417752E0,-1.8430291E-1,1.4215519E-1,-1.308676E0,4.5875183E-1,2.1964097E-1,-7.9847664E-1,3.6470535E0,7.0816034E-1,-8.000566E-1,-2.7245965E-2,-3.9919406E-1,2.886054E0,-1.5265237E0,1.4388666E-1,-1.7126669E0,1.4130728E-3,1.9729261E0,-1.2754576E-1,4.547144E-2,3.840157E-1,-5.054022E-1,-1.01039104E-1,1.2004899E0,2.433032E-2,2.8203882E-3,-1.13414E-1,3.5512024E-1,-1.1362585E-2,-4.7006723E-1,-2.2848009E-1,7.251008E-1,-1.9051848E-1,-1.4303459E-1,1.0364645E-1,-4.7926146E-1,-8.701083E-2,1.3336871E0,3.07487E-1,3.1483552E-1,-1.250638E-1,-9.451377E-2,-2.806419E-1,1.9189586E-1,-1.2658082E-1,-1.918502E-2,-2.6102552E-1,1.0288689E0,-1.3777629E-1,-5.812651E-1,1.763735E-2,-6.1187867E-2,2.671707E-1,-6.8757635E-1,-2.0250851E-1,4.9651816E-1,-1.650115E-1,-2.3579323E-1,8.577439E-1,-8.362526E-2,-6.773005E-3],"categories":[],"categories_nodes":[],"categories_segments":[],"categories_sizes":[],"default_left":[0,0,0,0,0,0,0,0,0,0,0,0,0,0,0,0,0,0,0,0,0,0,0,0,0,0,0,0,0,0,0,0,0,0,0,0,0,0,0,0,0,0,0,0,0,0,0,0,0,0,0,0,0,0,0,0,0,0,0,0,0,0,0,0,0,0,0,0,0,0,0,0,0,0,0,0,0,0,0,0,0,0,0,0,0,0,0,0,0,0,0,0,0],"id":10,"left_children":[1,3,5,7,9,11,13,15,-1,17,19,21,23,25,27,29,31,33,35,37,39,41,-1,-1,-1,43,45,47,49,51,53,-1,55,57,59,61,63,65,67,69,71,73,75,77,79,81,83,85,87,89,91,-1,-1,-1,-1,-1,-1,-1,-1,-1,-1,-1,-1,-1,-1,-1,-1,-1,-1,-1,-1,-1,-1,-1,-1,-1,-1,-1,-1,-1,-1,-1,-1,-1,-1,-1,-1,-1,-1,-1,-1,-1,-1],"loss_changes":[1.8914045E1,2.3637985E1,1.0126712E1,2.7523834E1,2.2204407E1,9.114824E0,1.2561771E1,1.938717E1,0E0,2.1399242E1,2.0628445E1,1.3433891E1,2.4370785E0,3.0712545E1,1.4344749E1,1.7598705E1,1.5153362E1,1.4078508E1,1.1726458E1,1.4881306E1,2.2281424E1,2.5747194E0,0E0,0E0,0E0,3.035691E1,9.719777E0,1.1020786E1,2.1846506E1,2.7234331E1,4.8734694E0,0E0,1.1042767E1,1.7867344E1,3.4360252E1,1.9144402E0,1.224475E1,1.2522365E1,6.03706E0,1.7252121E0,1.0804584E1,7.561369E-1,2.1124213E0,7.336748E-1,1.6120682E1,3.3719444E0,3.2984073E0,4.4634514E0,7.2936893E0,1.4472204E1,8.596253E0,0E0,0E0,0E0,0E0,0E0,0E0,0E0,0E0,0E0,0E0,0E0,0E0,0E0,0E0,0E0,0E0,0E0,0E0,0E0,0E0,0E0,0E0,0E0,0E0,0E0,0E0,0E0,0E0,0E0,0E0,0E0,0E0,0E0,0E0,0E0,0E0,0E0,0E0,0E0,0E0,0E0,0E0],"parents":[2147483647,0,0,1,1,2,2,3,3,4,4,5,5,6,6,7,7,9,9,10,10,11,11,12,12,13,13,14,14,15,15,16,16,17,17,18,18,19,19,20,20,21,21,25,25,26,26,27,27,28,28,29,29,30,30,32,32,33,33,34,34,35,35,36,36,37,37,38,38,39,39,40,40,41,41,42,42,43,43,44,44,45,45,46,46,47,47,48,48,49,49,50,50],"right_children":[2,4,6,8,10,12,14,16,-1,18,20,22,24,26,28,30,32,34,36,38,40,42,-1,-1,-1,44,46,48,50,52,54,-1,56,58,60,62,64,66,68,70,72,74,76,78,80,82,84,86,88,90,92,-1,-1,-1,-1,-1,-1,-1,-1,-1,-1,-1,-1,-1,-1,-1,-1,-1,-1,-1,-1,-1,-1,-1,-1,-1,-1,-1,-1,-1,-1,-1,-1,-1,-1,-1,-1,-1,-1,-1,-1,-1,-1],"split_conditions":[2.034E1,1.0606251E1,8.086552E1,2.0211363E1,2.0793747E1,6.1441936E1,1.14839264E2,1.0535418E1,8.423171E-1,2.0541666E1,1.7000002E0,5.464795E1,2.514852E1,9.239582E0,1.733602E2,8.9E0,1.243434E1,1.80625E1,7.0000005E-1,8.000001E-1,9.220499E0,2.9999998E0,5.0223976E-1,-5.488973E-1,-1.06133014E-1,-3.4895833E0,1.2618751E1,1E-1,1.8378601E2,6.4000006E0,1.05E1,-2.1916664E-1,1.679314E1,1.4743751E1,1.8458334E1,1.375558E1,1.6000001E0,1.030883E1,1.6179987E1,2.2031248E1,7.6999993E0,2.1109941E1,5.1999993E0,-5.633333E0,3E-1,1E-1,1E-1,1.0883331E1,6.5708327E0,8.08125E0,2.4508852E2,4.547144E-2,3.840157E-1,-5.054022E-1,-1.01039104E-1,1.2004899E0,2.433032E-2,2.8203882E-3,-1.13414E-1,3.5512024E-1,-1.1362585E-2,-4.7006723E-1,-2.2848009E-1,7.251008E-1,-1.9051848E-1,-1.4303459E-1,1.0364645E-1,-4.7926146E-1,-8.701083E-2,1.3336871E0,3.07487E-1,3.1483552E-1,-1.250638E-1,-9.451377E-2,-2.806419E-1,1.9189586E-1,-1.2658082E-1,-1.918502E-2,-2.6102552E-1,1.0288689E0,-1.3777629E-1,-5.812651E-1,1.763735E-2,-6.1187867E-2,2.671707E-1,-6.8757635E-1,-2.0250851E-1,4.9651816E-1,-1.650115E-1,-2.3579323E-1,8.577439E-1,-8.362526E-2,-6.773005E-3],"split_indices":[2,0,3,2,0,3,3,0,0,0,1,3,2,0,3,1,2,0,1,1,2,1,0,0,0,0,0,1,3,1,1,0,2,0,0,2,1,2,2,0,1,2,1,0,1,1,1,0,0,0,3,0,0,0,0,0,0,0,0,0,0,0,0,0,0,0,0,0,0,0,0,0,0,0,0,0,0,0,0,0,0,0,0,0,0,0,0,0,0,0,0,0,0],"split_type":[0,0,0,0,0,0,0,0,0,0,0,0,0,0,0,0,0,0,0,0,0,0,0,0,0,0,0,0,0,0,0,0,0,0,0,0,0,0,0,0,0,0,0,0,0,0,0,0,0,0,0,0,0,0,0,0,0,0,0,0,0,0,0,0,0,0,0,0,0,0,0,0,0,0,0,0,0,0,0,0,0,0,0,0,0,0,0,0,0,0,0,0,0],"sum_hessian":[2.321E3,1.704E3,6.17E2,8.39E2,8.65E2,3.1E1,5.86E2,8.36E2,3E0,6.82E2,1.83E2,2.3E1,8E0,2.6E1,5.6E2,8.32E2,4E0,6.57E2,2.5E1,1.55E2,2.8E1,2.1E1,2E0,6E0,2E0,1.1E1,1.5E1,1.5E1,5.45E2,8.21E2,1.1E1,1E0,3E0,4.75E2,1.82E2,2.1E1,4E0,1.4E2,1.5E1,2E0,2.6E1,1.5E1,6E0,4E0,7E0,4E0,1.1E1,9E0,6E0,4E0,5.41E2,8E2,2.1E1,5E0,6E0,2E0,1E0,2.38E2,2.37E2,2.6E1,1.56E2,1.3E1,8E0,1E0,3E0,2.1E1,1.19E2,5E0,1E1,1E0,1E0,2E1,6E0,4E0,1.1E1,2E0,4E0,3E0,1E0,6E0,1E0,3E0,1E0,8E0,3E0,5E0,4E0,1E0,5E0,1E0,3E0,2.21E2,3.2E2],"tree_param":{"num_deleted":"0","num_feature":"4","num_nodes":"93","size_leaf_vector":"1"}},{"base_weights":[1.20436605E-2,-3.8282904E-1,2.8321672E-2,5.4544E-1,-5.564343E-1,1.4553841E0,2.1886503E-2,-4.267688E-1,2.5752115E0,-9.7465885E-1,7.522174E-2,3.1110842E0,-8.225328E-1,7.749645E-2,-1.1938697E-1,1.0450131E-1,-1.3826169E0,1.5148124E0,2.0829818E-1,-1.162775E0,2.664012E-1,7.910565E-1,-1.8344897E-1,1.5136051E0,8.826139E-1,-1.4637725E0,2.613639E-1,5.7406045E-2,1.7409208E0,-1.978524E-1,3.341276E-1,2.6520142E-1,-1.5305994E-1,5.0216176E-2,-5.865242E-1,1.6155481E-1,-1.2638288E0,6.1580944E-1,-2.5759715E-1,-6.1685693E-1,2.3753583E-2,-2.0357901E-1,8.3493686E-1,-5.2910257E-2,-5.502355E-1,1.1808879E-1,-2.1810342E-1,4.4139533E0,1.6767865E-1,4.0928283E-1,-2.5568405E-1,7.820408E-1,-3.6493132E-1,1.330731E-2,1.03400216E-1,-6.582303E-1,-2.8589436E-1,-1.8754143E-1,2.1518938E-1,1.9384388E-2,1.5395091E-1,6.65377E-1,-8.353219E-2,-2.2251879E-1,2.5398443E0,-2.882778E-1,1.8070579E-1,5.2017566E-2,7.068266E-1,-4.200228E-1,-5.9668873E-2,1.2432384E-1,4.486457E-1,-3.3726105E-1,-4.5088314E-2],"categories":[],"categories_nodes":[],"categories_segments":[],"categories_sizes":[],"default_left":[0,0,0,0,0,0,0,0,0,0,0,0,0,0,0,0,0,0,0,0,0,0,0,0,0,0,0,0,0,0,0,0,0,0,0,0,0,0,0,0,0,0,0,0,0,0,0,0,0,0,0,0,0,0,0,0,0,0,0,0,0,0,0,0,0,0,0,0,0,0,0,0,0,0,0],"id":11,"left_children":[1,3,5,7,9,11,13,15,17,19,21,23,25,27,29,31,33,-1,-1,35,37,-1,39,-1,41,43,-1,45,47,49,51,53,-1,-1,-1,-1,55,-1,-1,-1,57,-1,-1,-1,-1,59,61,63,65,67,69,71,73,-1,-1,-1,-1,-1,-1,-1,-1,-1,-1,-1,-1,-1,-1,-1,-1,-1,-1,-1,-1,-1,-1],"loss_changes":[1.4936061E1,1.5129517E1,2.0456287E1,3.0699446E1,2.0678894E1,4.0274445E1,1.7465748E1,5.730434E0,1.976215E1,1.1282543E1,2.1687551E1,2.140963E1,6.705743E0,5.320314E1,2.2413622E1,9.255661E-1,3.8765402E0,0E0,0E0,7.729397E0,1.583038E1,0E0,1.1689943E1,0E0,1.3756994E1,1.5836611E0,0E0,2.63911E1,7.91611E1,1.8924479E1,2.9405338E1,1.0755828E-1,0E0,0E0,0E0,0E0,9.186802E0,0E0,0E0,0E0,1.3049393E1,0E0,0E0,0E0,0E0,2.7283567E1,4.250774E1,1.5252237E2,6.9562926E0,2.1175467E1,3.1565414E1,1.4330345E1,5.8608484E0,0E0,0E0,0E0,0E0,0E0,0E0,0E0,0E0,0E0,0E0,0E0,0E0,0E0,0E0,0E0,0E0,0E0,0E0,0E0,0E0,0E0,0E0],"parents":[2147483647,0,0,1,1,2,2,3,3,4,4,5,5,6,6,7,7,8,8,9,9,10,10,11,11,12,12,13,13,14,14,15,15,16,16,19,19,20,20,22,22,24,24,25,25,27,27,28,28,29,29,30,30,31,31,36,36,40,40,45,45,46,46,47,47,48,48,49,49,50,50,51,51,52,52],"right_children":[2,4,6,8,10,12,14,16,18,20,22,24,26,28,30,32,34,-1,-1,36,38,-1,40,-1,42,44,-1,46,48,50,52,54,-1,-1,-1,-1,56,-1,-1,-1,58,-1,-1,-1,-1,60,62,64,66,68,70,72,74,-1,-1,-1,-1,-1,-1,-1,-1,-1,-1,-1,-1,-1,-1,-1,-1,-1,-1,-1,-1,-1,-1],"split_conditions":[2.9372507E1,1.044E1,3.1282679E1,9.906544E0,4E-1,2E-1,2.6530338E2,1.4325834E1,4.077723E0,2.7697458E1,1.2313894E1,1.5881875E1,8.008332E0,2.6433112E2,3.9E0,1.7347914E1,-2.0541668E0,1.5148124E0,2.0829818E-1,-4.020834E-1,1.337825E1,7.910565E-1,1.2825552E1,1.5136051E0,1E-1,-5.633333E0,2.613639E-1,2.9999998E0,9.333333E0,1.0041354E1,2.1599998E1,4.854166E0,-1.5305994E-1,5.0216176E-2,-5.865242E-1,1.6155481E-1,1.2496719E1,6.1580944E-1,-2.5759715E-1,-6.1685693E-1,1.4325834E1,-2.0357901E-1,8.3493686E-1,-5.2910257E-2,-5.502355E-1,1.6E0,3.7065952E1,4.854166E0,3E-1,9.906544E0,1.0739833E1,1.8328207E1,2.2314192E1,1.330731E-2,1.03400216E-1,-6.582303E-1,-2.8589436E-1,-1.8754143E-1,2.1518938E-1,1.9384388E-2,1.5395091E-1,6.65377E-1,-8.353219E-2,-2.2251879E-1,2.5398443E0,-2.882778E-1,1.8070579E-1,5.2017566E-2,7.068266E-1,-4.200228E-1,-5.9668873E-2,1.2432384E-1,4.486457E-1,-3.3726105E-1,-4.5088314E-2],"split_indices":[3,2,3,2,1,1,3,3,3,3,2,2,0,3,1,0,0,0,0,0,2,0,2,0,1,0,0,1,0,2,2,0,0,0,0,0,2,0,0,0,3,0,0,0,0,1,3,0,1,2,2,2,2,0,0,0,0,0,0,0,0,0,0,0,0,0,0,0,0,0,0,0,0,0,0],"split_type":[0,0,0,0,0,0,0,0,0,0,0,0,0,0,0,0,0,0,0,0,0,0,0,0,0,0,0,0,0,0,0,0,0,0,0,0,0,0,0,0,0,0,0,0,0,0,0,0,0,0,0,0,0,0,0,0,0,0,0,0,0,0,0,0,0,0,0,0,0,0,0,0,0,0,0],"sum_hessian":[2.321E3,9.1E1,2.23E3,1.4E1,7.7E1,9E0,2.221E3,1E1,4E0,4.6E1,3.1E1,5E0,4E0,1.594E3,6.27E2,7E0,3E0,1E0,3E0,4E1,6E0,2E0,2.9E1,2E0,3E0,3E0,1E0,1.576E3,1.8E1,5.35E2,9.2E1,6E0,1E0,1E0,2E0,2E0,3.8E1,2E0,4E0,2E0,2.7E1,2E0,1E0,1E0,2E0,1.292E3,2.84E2,6E0,1.2E1,4.6E1,4.89E2,5.6E1,3.6E1,2E0,4E0,8E0,3E1,1.4E1,1.3E1,1.139E3,1.53E2,6E0,2.78E2,3E0,3E0,3E0,9E0,4.2E1,4E0,2.2E1,4.67E2,3.8E1,1.8E1,7E0,2.9E1],"tree_param":{"num_deleted":"0","num_feature":"4","num_nodes":"75","size_leaf_vector":"1"}},{"base_weights":[1.1085959E-2,1.4151627E-1,-3.7034523E-2,2.0289548E-1,-6.9539016E-1,-4.539382E-1,-1.5585584E-2,1.4778562E-1,1.5406715E0,-1.22817E0,7.8330517E-1,-1.1277599E0,2.9861414E-1,1.7424109E0,-3.426623E-2,6.29276E-2,6.0414666E-1,3.1479645E0,2.825572E-1,2.221593E-1,-1.3155645E0,9.3505645E-1,2.878139E-1,5.2787113E-1,-1.5103409E0,2.7389214E0,9.810004E-2,3.496791E0,4.675864E-1,1.254725E-1,-9.67429E-2,-2.6459283E-1,2.6909482E-1,1.2358487E0,-1.1714235E-1,1.1641588E0,1.6392939E0,-3.9819556E-1,1.5875512E0,-1.4989595E0,-6.2119056E-2,1.4786322E0,-6.0388684E-1,-1.372119E0,4.7852244E0,-3.3843598E0,-8.54037E-1,1.5112543E-1,1.0813893E0,-3.1047352E-3,5.7640153E-1,1.8859773E0,-1.6720682E-1,8.79169E-1,-2.7690706E-1,5.6172047E-2,1.4711282E0,-5.9217274E-1,-7.226709E-2,3.3103894E-2,-5.765945E-1,1.5007292E0,4.5690924E-2,4.7367263E-1,-8.540323E-1,-1.3059804E-1,5.593557E-1,6.125219E-1,4.4267178E-3,-2.643408E-1,-1.9603372E-2,8.7405956E-1,-8.0283925E-2,-2.1204697E-1,-5.5672795E-1,2.7603808E-1,-1.6131368E-1,-1.7828587E-1,6.4363E-1,2.4831305E-1,-2.9413143E-1,2.956009E-3,-7.2331846E-1,3.9648774E-1,1.7568632E0,-3.743279E-1,-1.2734102E0,-3.8807136E-1,2.9195496E-1,-2.6380414E-1,4.838632E-2,-1.3548015E-1,1.02896124E-1,-3.1286868E-1,3.749367E-1,3.4724495E-1,-1.0050144E-3,1.2892134E0,1.8129885E-1,-2.3763633E-1,6.3156325E-1,-2.69976E-2,9.509118E-2],"categories":[],"categories_nodes":[],"categories_segments":[],"categories_sizes":[],"default_left":[0,0,0,0,0,0,0,0,0,0,0,0,0,0,0,0,0,0,0,0,0,0,0,0,0,0,0,0,0,0,0,0,0,0,0,0,0,0,0,0,0,0,0,0,0,0,0,0,0,0,0,0,0,0,0,0,0,0,0,0,0,0,0,0,0,0,0,0,0,0,0,0,0,0,0,0,0,0,0,0,0,0,0,0,0,0,0,0,0,0,0,0,0,0,0,0,0,0,0,0,0,0,0],"id":12,"left_children":[1,3,5,7,9,11,13,15,17,19,21,23,25,27,29,31,33,35,37,-1,39,-1,41,43,45,47,49,51,53,55,57,59,61,63,65,-1,67,69,71,73,75,77,79,81,83,85,87,-1,-1,89,-1,-1,91,93,-1,95,97,99,101,-1,-1,-1,-1,-1,-1,-1,-1,-1,-1,-1,-1,-1,-1,-1,-1,-1,-1,-1,-1,-1,-1,-1,-1,-1,-1,-1,-1,-1,-1,-1,-1,-1,-1,-1,-1,-1,-1,-1,-1,-1,-1,-1,-1],"loss_changes":[1.4578972E1,3.229787E1,1.516774E1,4.2827507E1,3.483825E1,4.2424908E1,5.3097137E1,2.1725933E1,4.5620155E1,6.4799347E0,1.2977966E1,2.8667439E1,1.9303953E1,3.6385902E1,1.5970069E1,3.2145092E1,4.0241066E1,4.6906586E0,1.3069452E1,0E0,7.0330315E0,0E0,1.2573316E1,7.936626E1,4.138697E1,3.9891834E0,7.017741E0,7.2603905E1,7.1073523E0,4.1881912E1,1.3902156E1,1.1455335E2,1.6065997E2,7.032227E1,2.7294092E1,0E0,3.2388153E0,1.5498942E0,1.3079258E1,6.3194275E0,2.8305113E0,8.186124E0,4.5850058E0,1.0074287E1,3.3886871E0,1.1247467E1,2.3746397E1,0E0,0E0,5.4715905E0,0E0,0E0,7.352767E-1,7.7146E0,0E0,2.8125834E1,5.1298344E1,3.0791786E1,7.5969443E0,0E0,0E0,0E0,0E0,0E0,0E0,0E0,0E0,0E0,0E0,0E0,0E0,0E0,0E0,0E0,0E0,0E0,0E0,0E0,0E0,0E0,0E0,0E0,0E0,0E0,0E0,0E0,0E0,0E0,0E0,0E0,0E0,0E0,0E0,0E0,0E0,0E0,0E0,0E0,0E0,0E0,0E0,0E0,0E0],"parents":[2147483647,0,0,1,1,2,2,3,3,4,4,5,5,6,6,7,7,8,8,9,9,10,10,11,11,12,12,13,13,14,14,15,15,16,16,17,17,18,18,20,20,22,22,23,23,24,24,25,25,26,26,27,27,28,28,29,29,30,30,31,31,32,32,33,33,34,34,36,36,37,37,38,38,39,39,40,40,41,41,42,42,43,43,44,44,45,45,46,46,49,49,52,52,53,53,55,55,56,56,57,57,58,58],"right_children":[2,4,6,8,10,12,14,16,18,20,22,24,26,28,30,32,34,36,38,-1,40,-1,42,44,46,48,50,52,54,56,58,60,62,64,66,-1,68,70,72,74,76,78,80,82,84,86,88,-1,-1,90,-1,-1,92,94,-1,96,98,100,102,-1,-1,-1,-1,-1,-1,-1,-1,-1,-1,-1,-1,-1,-1,-1,-1,-1,-1,-1,-1,-1,-1,-1,-1,-1,-1,-1,-1,-1,-1,-1,-1,-1,-1,-1,-1,-1,-1,-1,-1,-1,-1,-1,-1],"split_conditions":[1.3138765E1,3E0,1.3608762E1,2.0000002E0,2.5306868E2,1.2618751E1,1.3708391E1,1.257426E1,2.3000002E0,8.78872E0,-1.0333333E0,1.0426454E2,3.7065952E1,1.6011324E2,5.8812504E0,6.737499E0,9.333333E0,1.1367109E1,1.8635418E1,2.221593E-1,1.2825552E1,9.3505645E-1,2.8437372E2,7.1005005E1,1.6011324E2,1.5095833E1,3.238529E2,8.95625E0,2.4E0,5.6875E0,1.4081477E1,5.0729165E0,7.047916E0,1.3000002E0,3E-1,1.1641588E0,1.7102083E1,2.5E0,1.9797918E1,1.030883E1,8.008332E0,4.3E0,3.3E0,1.3493999E1,2.5520833E0,1.2062501E0,1.3493999E1,1.5112543E-1,1.0813893E0,7.7303764E1,5.7640153E-1,1.8859773E0,1.5920834E1,1.8598747E2,-2.7690706E-1,1.4113653E1,1.4693999E1,3.8999999E0,2.3054169E1,3.3103894E-2,-5.765945E-1,1.5007292E0,4.5690924E-2,4.7367263E-1,-8.540323E-1,-1.3059804E-1,5.593557E-1,6.125219E-1,4.4267178E-3,-2.643408E-1,-1.9603372E-2,8.7405956E-1,-8.0283925E-2,-2.1204697E-1,-5.5672795E-1,2.7603808E-1,-1.6131368E-1,-1.7828587E-1,6.4363E-1,2.4831305E-1,-2.9413143E-1,2.956009E-3,-7.2331846E-1,3.9648774E-1,1.7568632E0,-3.743279E-1,-1.2734102E0,-3.8807136E-1,2.9195496E-1,-2.6380414E-1,4.838632E-2,-1.3548015E-1,1.02896124E-1,-3.1286868E-1,3.749367E-1,3.4724495E-1,-1.0050144E-3,1.2892134E0,1.8129885E-1,-2.3763633E-1,6.3156325E-1,-2.69976E-2,9.509118E-2],"split_indices":[2,1,2,1,3,0,2,2,1,2,0,3,3,3,0,0,0,2,0,0,2,0,3,3,3,0,3,0,1,0,2,0,0,1,1,0,0,1,0,2,0,1,1,2,0,0,2,0,0,3,0,0,0,3,0,2,2,1,0,0,0,0,0,0,0,0,0,0,0,0,0,0,0,0,0,0,0,0,0,0,0,0,0,0,0,0,0,0,0,0,0,0,0,0,0,0,0,0,0,0,0,0,0],"split_type":[0,0,0,0,0,0,0,0,0,0,0,0,0,0,0,0,0,0,0,0,0,0,0,0,0,0,0,0,0,0,0,0,0,0,0,0,0,0,0,0,0,0,0,0,0,0,0,0,0,0,0,0,0,0,0,0,0,0,0,0,0,0,0,0,0,0,0,0,0,0,0,0,0,0,0,0,0,0,0,0,0,0,0,0,0,0,0,0,0,0,0,0,0,0,0,0,0,0,0,0,0,0,0],"sum_hessian":[2.321E3,6.25E2,1.696E3,5.83E2,4.2E1,8.2E1,1.614E3,5.61E2,2.2E1,3.1E1,1.1E1,4.3E1,3.9E1,1.6E1,1.598E3,4.74E2,8.7E1,9E0,1.3E1,1E0,3E1,1E0,1E1,8E0,3.5E1,2E0,3.7E1,6E0,1E1,4.49E2,1.149E3,1.83E2,2.91E2,4.6E1,4.1E1,5E0,4E0,9E0,4E0,2.6E1,4E0,4E0,6E0,6E0,2E0,8E0,2.7E1,1E0,1E0,3.6E1,1E0,3E0,3E0,8E0,2E0,4.28E2,2.1E1,5.3E1,1.096E3,1.5E2,3.3E1,6E0,2.85E2,4.3E1,3E0,3.6E1,5E0,3E0,1E0,3E0,6E0,2E0,2E0,9E0,1.7E1,1E0,3E0,1E0,3E0,1E0,5E0,3E0,3E0,1E0,1E0,3E0,5E0,2.2E1,5E0,5E0,3.1E1,2E0,1E0,1E0,7E0,2.1E1,4.07E2,4E0,1.7E1,5E1,3E0,1.049E3,4.7E1],"tree_param":{"num_deleted":"0","num_feature":"4","num_nodes":"103","size_leaf_vector":"1"}},{"base_weights":[1.1836344E-2,-6.5619063E-1,1.7632568E-2,5.4660785E-1,-1.093564E0,2.5085783E-1,-3.4576638E-3,-5.8868295E-1,1.8781264E0,-1.244703E0,-2.223201E-2,-5.78361E-1,3.7349024E-1,-8.036063E-1,3.8007041E-3,2.1469975E-2,-2.497865E-1,7.176935E-1,1.2746339E-1,-6.4399964E-1,-5.002775E-1,8.058607E-1,-1.0578973E0,1.8091097E0,1.6586101E-1,-1.8237213E0,1.04088455E-1,1.4946042E0,-3.3478271E-3,-3.726432E-1,-1.563131E-1,2.2430148E0,-2.4982758E-1,-1.3252153E0,2.7584922E-1,3.1477566E0,-7.5966096E-1,-1.9139903E0,3.1537297E-1,5.081849E-1,-2.475174E0,7.561114E-1,-5.652825E-1,5.3948374E0,-9.4761515E-1,8.976551E-2,-4.5088194E-2,6.877794E-2,-1.469345E-1,8.720605E-1,3.7718154E-2,-1.8720153E-1,-5.8452755E-1,1.5238404E-1,-6.3066535E-2,2.952075E-3,1.2007973E0,-3.8552725E-1,1.6332573E-1,9.8733045E-2,-8.767005E-1,4.2355135E-1,6.278603E-2,-3.9611965E-1,-9.899548E-1,-1.8346739E-1,6.9829005E-1,-4.1000667E-1,5.312784E-2,1.9841528E0,2.6067325E-1,-4.983692E-1,5.001117E-1,1.451158E-2,1.8488532E-1,-3.9453664E-1,-1.0856328E-2],"categories":[],"categories_nodes":[],"categories_segments":[],"categories_sizes":[],"default_left":[0,0,0,0,0,0,0,0,0,0,0,0,0,0,0,0,0,0,0,0,0,0,0,0,0,0,0,0,0,0,0,0,0,0,0,0,0,0,0,0,0,0,0,0,0,0,0,0,0,0,0,0,0,0,0,0,0,0,0,0,0,0,0,0,0,0,0,0,0,0,0,0,0,0,0,0,0],"id":13,"left_children":[1,3,5,7,9,11,13,15,17,19,-1,21,23,25,27,-1,-1,-1,-1,29,-1,31,33,35,37,39,41,43,45,-1,47,49,-1,51,53,55,57,59,61,-1,63,65,67,69,71,73,75,-1,-1,-1,-1,-1,-1,-1,-1,-1,-1,-1,-1,-1,-1,-1,-1,-1,-1,-1,-1,-1,-1,-1,-1,-1,-1,-1,-1,-1,-1],"loss_changes":[9.002433E0,1.111919E1,1.1328807E1,1.0175586E1,2.218958E0,1.963863E1,1.22748785E1,7.0382977E-1,1.225276E0,2.2284698E0,0E0,1.7447136E1,4.947873E1,1.7782936E1,2.2331535E1,0E0,0E0,0E0,0E0,1.847785E0,0E0,1.8352528E1,7.139715E0,7.460344E1,4.631513E1,2.4817183E1,5.2283144E0,1.0036447E2,8.1114645E0,0E0,7.5516945E-1,5.2568016E0,0E0,5.776188E0,5.580451E-1,3.751712E1,6.181249E0,2.3579952E1,1.5756658E1,0E0,3.2614021E0,1.4319417E1,3.8116965E0,1.632167E1,1.58303385E1,1.4049437E1,1.6241268E1,0E0,0E0,0E0,0E0,0E0,0E0,0E0,0E0,0E0,0E0,0E0,0E0,0E0,0E0,0E0,0E0,0E0,0E0,0E0,0E0,0E0,0E0,0E0,0E0,0E0,0E0,0E0,0E0,0E0,0E0],"parents":[2147483647,0,0,1,1,2,2,3,3,4,4,5,5,6,6,7,7,8,8,9,9,11,11,12,12,13,13,14,14,19,19,21,21,22,22,23,23,24,24,25,25,26,26,27,27,28,28,30,30,31,31,33,33,34,34,35,35,36,36,37,37,38,38,40,40,41,41,42,42,43,43,44,44,45,45,46,46],"right_children":[2,4,6,8,10,12,14,16,18,20,-1,22,24,26,28,-1,-1,-1,-1,30,-1,32,34,36,38,40,42,44,46,-1,48,50,-1,52,54,56,58,60,62,-1,64,66,68,70,72,74,76,-1,-1,-1,-1,-1,-1,-1,-1,-1,-1,-1,-1,-1,-1,-1,-1,-1,-1,-1,-1,-1,-1,-1,-1,-1,-1,-1,-1,-1,-1],"split_conditions":[-6.3562503E0,6.946715E1,5.8124983E-1,-7.227083E0,1.9171478E1,5.929264E1,8.2916665E-1,6.4624763E0,9.387651E0,1.27279215E1,-2.223201E-2,9.531505E0,8.086552E1,1E-1,9.541666E-1,2.1469975E-2,-2.497865E-1,7.176935E-1,1.2746339E-1,8.78872E0,-5.002775E-1,3.4492035E1,2.6E0,1.7163355E1,8.8735756E1,4.342811E1,2.3840012E2,1.6493147E2,1.3920647E1,-3.726432E-1,-7.227083E0,1E-1,-2.4982758E-1,-8.333385E-3,5.1999993E0,-3.4895833E0,2.0000002E0,1.2224107E1,8.427383E0,5.081849E-1,7.333333E-1,2.0524806E2,2.5086624E2,1E-1,2.8237262E2,1.3608762E1,1.1270833E0,6.877794E-2,-1.469345E-1,8.720605E-1,3.7718154E-2,-1.8720153E-1,-5.8452755E-1,1.5238404E-1,-6.3066535E-2,2.952075E-3,1.2007973E0,-3.8552725E-1,1.6332573E-1,9.8733045E-2,-8.767005E-1,4.2355135E-1,6.278603E-2,-3.9611965E-1,-9.899548E-1,-1.8346739E-1,6.9829005E-1,-4.1000667E-1,5.312784E-2,1.9841528E0,2.6067325E-1,-4.983692E-1,5.001117E-1,1.451158E-2,1.8488532E-1,-3.9453664E-1,-1.0856328E-2],"split_indices":[0,3,0,0,2,3,0,2,2,2,0,2,3,1,0,0,0,0,0,2,0,3,1,2,3,3,3,3,2,0,0,1,0,0,1,0,1,2,2,0,0,3,3,1,3,2,0,0,0,0,0,0,0,0,0,0,0,0,0,0,0,0,0,0,0,0,0,0,0,0,0,0,0,0,0,0,0],"split_type":[0,0,0,0,0,0,0,0,0,0,0,0,0,0,0,0,0,0,0,0,0,0,0,0,0,0,0,0,0,0,0,0,0,0,0,0,0,0,0,0,0,0,0,0,0,0,0,0,0,0,0,0,0,0,0,0,0,0,0,0,0,0,0,0,0,0,0,0,0,0,0,0,0,0,0,0,0],"sum_hessian":[2.321E3,1.9E1,2.302E3,5E0,1.4E1,1.9E2,2.112E3,3E0,2E0,1.2E1,2E0,2.4E1,1.66E2,1.8E1,2.094E3,1E0,2E0,1E0,1E0,6E0,6E0,6E0,1.8E1,2E1,1.46E2,8E0,1E1,9E0,2.085E3,2E0,4E0,3E0,3E0,1.5E1,3E0,1.3E1,7E0,9E0,1.37E2,1E0,7E0,5E0,5E0,3E0,6E0,6.45E2,1.44E3,2E0,2E0,2E0,1E0,8E0,7E0,2E0,1E0,3E0,1E1,5E0,2E0,3E0,6E0,1.1E1,1.26E2,4E0,3E0,3E0,2E0,2E0,3E0,2E0,1E0,5E0,1E0,5.99E2,4.6E1,9E0,1.431E3],"tree_param":{"num_deleted":"0","num_feature":"4","num_nodes":"77","size_leaf_vector":"1"}},{"base_weights":[8.988135E-3,3.788826E-3,5.785034E-1,6.43707E-2,-4.7159154E-2,1.8761643E0,5.5724084E-2,2.7911222E-1,-2.2151296E-3,-8.98933E-2,1.9647199E-1,6.7555416E-1,7.4986583E-1,7.128992E-1,-4.45529E-1,1.23490445E-1,2.2693977E0,-1.3554707E0,2.8738892E-2,-3.5250768E-2,-3.319806E-1,-4.8476544E-1,3.2457736E-1,-2.750187E-2,3.649415E-1,-1.6157628E0,1.841408E-1,-3.3821353E-1,6.754991E-1,-6.0617906E-1,3.1342895E0,4.0465719E-1,-1.8872684E0,5.719797E-1,-3.439777E-2,1.5433171E-1,-1.1323894E-1,8.6815107E-1,-3.8015312E-1,2.8687863E-2,-8.286614E-1,-2.0425713E-1,6.169204E-1,-5.4052407E-1,-1.3077408E-1,1.6916884E-2,2.533734E-1,-3.2011133E-2,-4.9456435E-1,1.3096356E-1,8.098518E-1,4.745148E-1,-7.7760434E-1,1.9822385E0,1.411762E-1,-5.999982E-1,4.5174554E-1,-7.8983206E-1,-5.641494E-3,9.386866E-2,1.3497891E0,-1.4586684E-1,2.6822185E-2,1.2552844E-1,-6.7325614E-2,-6.47776E-2,1.3067408E-2,-1.4721778E-1,1.7346106E-2,-1.1092238E-1,3.0527663E-1,1.8665873E-1,-2.8518173E-1,7.112916E-2,-2.1102965E-1,7.6856846E-1,1.4707582E-1,-7.1037054E-2,1.1797448E-1],"categories":[],"categories_nodes":[],"categories_segments":[],"categories_sizes":[],"default_left":[0,0,0,0,0,0,0,0,0,0,0,0,0,0,0,0,0,0,0,0,0,0,0,0,0,0,0,0,0,0,0,0,0,0,0,0,0,0,0,0,0,0,0,0,0,0,0,0,0,0,0,0,0,0,0,0,0,0,0,0,0,0,0,0,0,0,0,0,0,0,0,0,0,0,0,0,0,0,0],"id":14,"left_children":[1,3,5,7,9,11,13,15,17,19,21,-1,23,-1,25,27,29,31,33,35,37,39,41,-1,-1,43,45,47,49,51,53,55,57,59,61,63,65,-1,67,69,71,73,75,-1,-1,77,-1,-1,-1,-1,-1,-1,-1,-1,-1,-1,-1,-1,-1,-1,-1,-1,-1,-1,-1,-1,-1,-1,-1,-1,-1,-1,-1,-1,-1,-1,-1,-1,-1],"loss_changes":[6.8734493E0,7.1082144E0,1.4141647E1,1.5042895E1,1.3042283E1,8.5020256E-1,1.9670103E1,7.684296E1,3.3717472E1,1.4076396E1,1.647687E1,0E0,1.2895181E0,0E0,1.0613581E1,5.9357044E1,4.6667084E1,1.7612274E1,2.7012524E1,1.2880593E1,3.1557673E1,5.3210077E0,2.4552979E1,0E0,0E0,3.1175804E-1,1.0901213E0,3.8350197E1,5.008784E1,2.5823826E1,1.2641153E2,1.625117E1,1.9451775E1,8.202767E1,3.953586E1,2.5500668E1,9.943667E0,0E0,9.423399E0,5.4983344E0,3.7760897E0,1.2724626E1,2.3873295E1,0E0,0E0,9.524187E-1,0E0,0E0,0E0,0E0,0E0,0E0,0E0,0E0,0E0,0E0,0E0,0E0,0E0,0E0,0E0,0E0,0E0,0E0,0E0,0E0,0E0,0E0,0E0,0E0,0E0,0E0,0E0,0E0,0E0,0E0,0E0,0E0,0E0],"parents":[2147483647,0,0,1,1,2,2,3,3,4,4,5,5,6,6,7,7,8,8,9,9,10,10,12,12,14,14,15,15,16,16,17,17,18,18,19,19,20,20,21,21,22,22,25,25,26,26,27,27,28,28,29,29,30,30,31,31,32,32,33,33,34,34,35,35,36,36,38,38,39,39,40,40,41,41,42,42,45,45],"right_children":[2,4,6,8,10,12,14,16,18,20,22,-1,24,-1,26,28,30,32,34,36,38,40,42,-1,-1,44,46,48,50,52,54,56,58,60,62,64,66,-1,68,70,72,74,76,-1,-1,78,-1,-1,-1,-1,-1,-1,-1,-1,-1,-1,-1,-1,-1,-1,-1,-1,-1,-1,-1,-1,-1,-1,-1,-1,-1,-1,-1,-1,-1,-1,-1,-1,-1],"split_conditions":[2.5770834E1,9.131249E0,1.3044722E1,1.2426471E2,3.8999999E0,1.210157E1,1.1296085E2,1.16467384E2,1.2820708E2,1.3E0,1.3276144E1,6.7555416E-1,1.2496719E1,7.128992E-1,1.5408671E1,1E-1,1.1995349E1,1.1113451E1,1.0472535E1,1.3483333E1,9.220499E0,1.5972917E1,1.4166665E1,-2.750187E-2,3.649415E-1,1.5021105E1,6E-1,1.0957843E2,1.000493E2,-4.020834E-1,1.6167967E1,-2.8270833E0,1.6862455E1,1.030883E1,2.0213113E2,2.3066327E2,1E-1,8.6815107E-1,1.8977083E1,6.600001E0,8.78872E0,6.8999996E0,1.4743751E1,-5.4052407E-1,-1.3077408E-1,1.9523155E1,2.533734E-1,-3.2011133E-2,-4.9456435E-1,1.3096356E-1,8.098518E-1,4.745148E-1,-7.7760434E-1,1.9822385E0,1.411762E-1,-5.999982E-1,4.5174554E-1,-7.8983206E-1,-5.641494E-3,9.386866E-2,1.3497891E0,-1.4586684E-1,2.6822185E-2,1.2552844E-1,-6.7325614E-2,-6.47776E-2,1.3067408E-2,-1.4721778E-1,1.7346106E-2,-1.1092238E-1,3.0527663E-1,1.8665873E-1,-2.8518173E-1,7.112916E-2,-2.1102965E-1,7.6856846E-1,1.4707582E-1,-7.1037054E-2,1.1797448E-1],"split_indices":[0,0,2,3,1,2,3,3,3,1,2,0,2,0,2,1,2,2,2,0,2,0,0,0,0,2,1,3,3,0,2,0,2,2,3,3,1,0,0,1,2,1,0,0,0,2,0,0,0,0,0,0,0,0,0,0,0,0,0,0,0,0,0,0,0,0,0,0,0,0,0,0,0,0,0,0,0,0,0],"split_type":[0,0,0,0,0,0,0,0,0,0,0,0,0,0,0,0,0,0,0,0,0,0,0,0,0,0,0,0,0,0,0,0,0,0,0,0,0,0,0,0,0,0,0,0,0,0,0,0,0,0,0,0,0,0,0,0,0,0,0,0,0,0,0,0,0,0,0,0,0,0,0,0,0,0,0,0,0,0,0],"sum_hessian":[2.321E3,2.301E3,2E1,1.051E3,1.25E3,5E0,1.5E1,2.48E2,8.03E2,1.064E3,1.86E2,3E0,2E0,2E0,1.3E1,2.31E2,1.7E1,1.7E1,7.86E2,8.69E2,1.95E2,2.9E1,1.57E2,1E0,1E0,4E0,9E0,1.26E2,1.05E2,4E0,1.3E1,4E0,1.3E1,8.1E1,7.05E2,2.53E2,6.16E2,2E0,1.93E2,1.2E1,1.7E1,5.6E1,1.01E2,3E0,1E0,8E0,1E0,1.08E2,1.8E1,9.5E1,1E1,2E0,2E0,5E0,8E0,1E0,3E0,9E0,4E0,7.7E1,4E0,1.51E2,5.54E2,1.49E2,1.04E2,3.72E2,2.44E2,1.54E2,3.9E1,9E0,3E0,1E0,1.6E1,3E1,2.6E1,5E0,9.6E1,5E0,3E0],"tree_param":{"num_deleted":"0","num_feature":"4","num_nodes":"79","size_leaf_vector":"1"}},{"base_weights":[8.697688E-3,-2.7690256E-1,2.047112E-2,-3.9715764E-1,4.8442876E-1,1.1070693E0,1.55717265E-2,-5.379709E-2,-6.768663E-1,-3.7678343E-1,7.341219E-1,2.3883457E0,-6.5187657E-1,-3.3452612E-1,2.8295297E-2,5.1786697E-1,-7.568058E-1,-9.957666E-1,-3.6962584E-1,1.4022523E0,5.656418E-2,1.1338319E0,7.479393E-1,-1.0792788E0,1.5865989E-1,-5.9077674E-1,2.3235632E-1,3.4592745E-1,3.725193E-3,-2.3067154E-1,9.9625003E-1,5.381155E-1,-1.7170622E0,-1.0097661E-1,-1.2690774E0,-4.620783E-1,4.3156767E-1,1.1320668E-1,5.461086E-1,2.6211375E-1,-1.7650999E-1,-1.6464417E-1,6.9572985E-1,-3.638728E-2,-4.0745336E-1,-4.228512E-1,-2.5841334E0,2.0297818E0,-2.066667E-1,1.4352576E0,1.1344433E-1,-8.3302236E-1,1.0922046E-2,-2.3971419E-1,2.0386802E-1,9.307735E-1,1.622811E-2,-8.971349E-2,3.3006626E-1,-6.635007E-1,5.2273024E-2,3.9697224E-1,-1.9514048E-1,-5.3579676E-1,-1.04800574E-1,3.3534802E-2,-1.5751608E-1,2.3579164E-1,-4.1586187E-2,-1.14034034E-1,1.3997456E-1,-1.9474612E-1,1.3772428E-1,-2.4866281E-1,-1.1774858E0,8.0024606E-1,-7.8155674E-2,-1.840048E-1,2.7367944E-1,2.8907928E-1,1.4662013E0,-4.5575446E-1,8.397706E-2,-8.2890354E-2,-2.9492018E-1,3.792555E-1,1.5555335E-3],"categories":[],"categories_nodes":[],"categories_segments":[],"categories_sizes":[],"default_left":[0,0,0,0,0,0,0,0,0,0,0,0,0,0,0,0,0,0,0,0,0,0,0,0,0,0,0,0,0,0,0,0,0,0,0,0,0,0,0,0,0,0,0,0,0,0,0,0,0,0,0,0,0,0,0,0,0,0,0,0,0,0,0,0,0,0,0,0,0,0,0,0,0,0,0,0,0,0,0,0,0,0,0,0,0,0,0],"id":15,"left_children":[1,3,5,7,9,11,13,15,17,-1,19,21,23,25,27,29,31,33,35,37,39,-1,41,43,-1,45,47,49,51,53,55,57,59,61,63,65,67,-1,-1,69,-1,-1,-1,-1,-1,71,73,75,77,79,81,83,85,-1,-1,-1,-1,-1,-1,-1,-1,-1,-1,-1,-1,-1,-1,-1,-1,-1,-1,-1,-1,-1,-1,-1,-1,-1,-1,-1,-1,-1,-1,-1,-1,-1,-1],"loss_changes":[7.813382E0,8.615357E0,1.1859873E1,7.64686E0,6.571289E0,2.4093864E1,9.907352E0,1.5261663E1,3.943018E0,0E0,5.3530464E0,1.086496E1,3.0940552E0,1.1467863E1,1.6738838E1,7.749657E0,2.2062737E1,5.0075245E0,1.9771545E0,1.8841906E0,1.0821757E0,0E0,9.422381E0,9.0399265E-1,0E0,1.6983013E1,2.0147268E1,3.8837814E1,1.2004822E1,5.1991825E0,2.5630547E1,4.0935936E0,9.739897E0,5.5562987E0,6.9829006E0,8.537502E-1,7.1518385E-1,0E0,0E0,9.652438E-1,0E0,0E0,0E0,0E0,0E0,1.0476769E1,6.160635E0,7.99761E0,1.0115586E1,3.925219E1,3.521543E1,1.1484423E0,1.42006645E1,0E0,0E0,0E0,0E0,0E0,0E0,0E0,0E0,0E0,0E0,0E0,0E0,0E0,0E0,0E0,0E0,0E0,0E0,0E0,0E0,0E0,0E0,0E0,0E0,0E0,0E0,0E0,0E0,0E0,0E0,0E0,0E0,0E0,0E0],"parents":[2147483647,0,0,1,1,2,2,3,3,4,4,5,5,6,6,7,7,8,8,10,10,11,11,12,12,13,13,14,14,15,15,16,16,17,17,18,18,19,19,20,20,22,22,23,23,25,25,26,26,27,27,28,28,29,29,30,30,31,31,32,32,33,33,34,34,35,35,36,36,39,39,45,45,46,46,47,47,48,48,49,49,50,50,51,51,52,52],"right_children":[2,4,6,8,10,12,14,16,18,-1,20,22,24,26,28,30,32,34,36,38,40,-1,42,44,-1,46,48,50,52,54,56,58,60,62,64,66,68,-1,-1,70,-1,-1,-1,-1,-1,72,74,76,78,80,82,84,86,-1,-1,-1,-1,-1,-1,-1,-1,-1,-1,-1,-1,-1,-1,-1,-1,-1,-1,-1,-1,-1,-1,-1,-1,-1,-1,-1,-1,-1,-1,-1,-1,-1,-1],"split_conditions":[2.9372507E1,2.9999998E0,3.1282679E1,1.337825E1,1.2825552E1,2E-1,-2.0541668E0,1.4325834E1,1.4325834E1,-3.7678343E-1,9.131249E0,1.5881875E1,8.008332E0,1.656E1,1.0666667E0,4.854166E0,4.0145836E0,1.5464826E0,1.0000001E0,6.8583336E0,1.9875002E1,1.1338319E0,1E-1,-5.633333E0,1.5865989E-1,1.4773164E1,1.7208603E1,8.245357E1,3.4492035E1,7.229104E0,9.714584E0,1.0239453E1,8.310417E0,1.6167967E1,1.4447915E1,1.8298832E1,2.1E0,1.1320668E-1,5.461086E-1,9.858335E0,-1.7650999E-1,-1.6464417E-1,6.9572985E-1,-3.638728E-2,-4.0745336E-1,2.8237262E2,-3.4895833E0,1E-1,-2.5479167E0,8.2916665E-1,1.0208816E2,9.826088E0,3.7065952E1,-2.3971419E-1,2.0386802E-1,9.307735E-1,1.622811E-2,-8.971349E-2,3.3006626E-1,-6.635007E-1,5.2273024E-2,3.9697224E-1,-1.9514048E-1,-5.3579676E-1,-1.04800574E-1,3.3534802E-2,-1.5751608E-1,2.3579164E-1,-4.1586187E-2,-1.14034034E-1,1.3997456E-1,-1.9474612E-1,1.3772428E-1,-2.4866281E-1,-1.1774858E0,8.0024606E-1,-7.8155674E-2,-1.840048E-1,2.7367944E-1,2.8907928E-1,1.4662013E0,-4.5575446E-1,8.397706E-2,-8.2890354E-2,-2.9492018E-1,3.792555E-1,1.5555335E-3],"split_indices":[3,1,3,2,2,1,0,3,3,0,0,2,0,2,0,0,0,3,1,0,0,0,1,0,0,2,2,3,3,3,0,2,0,2,0,3,1,0,0,0,0,0,0,0,0,3,0,1,0,0,3,2,3,0,0,0,0,0,0,0,0,0,0,0,0,0,0,0,0,0,0,0,0,0,0,0,0,0,0,0,0,0,0,0,0,0,0],"split_type":[0,0,0,0,0,0,0,0,0,0,0,0,0,0,0,0,0,0,0,0,0,0,0,0,0,0,0,0,0,0,0,0,0,0,0,0,0,0,0,0,0,0,0,0,0,0,0,0,0,0,0,0,0,0,0,0,0,0,0,0,0,0,0,0,0,0,0,0,0,0,0,0,0,0,0,0,0,0,0,0,0,0,0,0,0,0,0],"sum_hessian":[2.321E3,9.1E1,2.23E3,7.9E1,1.2E1,9E0,2.221E3,3.6E1,4.3E1,1E0,1.1E1,5E0,4E0,7.7E1,2.144E3,2E1,1.6E1,2E1,2.3E1,5E0,6E0,2E0,3E0,3E0,1E0,5.3E1,2.4E1,1.53E2,1.991E3,8E0,1.2E1,7E0,9E0,5E0,1.5E1,2.1E1,2E0,2E0,3E0,5E0,1E0,2E0,1E0,1E0,2E0,5E1,3E0,4E0,2E1,2.6E1,1.27E2,1.6E1,1.975E3,5E0,3E0,3E0,9E0,3E0,4E0,7E0,2E0,1E0,4E0,9E0,6E0,2E0,1.9E1,1E0,1E0,1E0,4E0,4E1,1E1,2E0,1E0,3E0,1E0,1.5E1,5E0,2.4E1,2E0,1.1E1,1.16E2,4E0,1.2E1,8E0,1.967E3],"tree_param":{"num_deleted":"0","num_feature":"4","num_nodes":"87","size_leaf_vector":"1"}},{"base_weights":[7.1214093E-3,3.977286E-2,-8.101765E-2,2.4758115E-2,1.3629284E0,-4.545924E-1,-2.4080435E-2,-1.739169E-1,4.5972228E-2,1.7744288E0,7.8145087E-1,-8.251009E-1,5.2046522E-2,-2.887844E-1,8.4455684E-2,-8.521423E-2,-1.6723942E0,8.6326265E-1,3.224687E-2,1.610514E0,-4.5619237E-1,-2.2522084E-1,-1.245543E0,1.0234972E0,-1.4141828E-1,-2.2463992E-1,-1.3328992E0,1.314773E0,-7.269915E-2,2.8022064E-2,-8.9126277E-1,-6.353604E-1,2.8370965E-1,1.2111764E0,-6.2754905E-1,-4.104497E-1,4.78816E-2,5.5940884E-1,1.8182349E0,-4.9242008E-1,-5.2391205E-2,4.8988274E-1,-8.023721E-1,-2.0026157E0,-4.5590568E-1,-5.070303E-1,2.7552563E-1,7.2081074E-2,-3.9538717E-1,-4.2504236E-1,-9.924469E-2,3.0027397E0,4.2696387E-1,-8.6149126E-1,-2.408399E-2,-4.0552955E-2,5.68452E-1,3.6676645E-2,-4.9184433E-1,6.7900354E-1,-4.2720765E-2,-4.598282E-2,-1.0181763E0,1.9939451E-1,9.8894015E-3,-2.2992502E-1,2.9600018E-1,-9.869811E-2,7.119273E-2,8.707742E-3,6.956393E-1,-3.3652148E-1,-3.9273586E-2,-6.806283E-1,-8.114888E-2,-1.7886678E-2,-2.1404098E-1,-2.4440996E-1,-4.4597313E-2,3.654005E-1,-6.5601856E-2,-8.081584E-2,7.502506E-1,-1.975045E-1,5.3165995E-2,-3.0201608E-1,1.3656735E0,2.8537503E-1,-7.2050035E-2,-3.512689E-1,3.846307E-1,-2.8780278E-2,9.2870355E-2],"categories":[],"categories_nodes":[],"categories_segments":[],"categories_sizes":[],"default_left":[0,0,0,0,0,0,0,0,0,0,0,0,0,0,0,0,0,0,0,0,0,0,0,0,0,0,0,0,0,0,0,0,0,0,0,0,0,0,0,0,0,0,0,0,0,0,0,0,0,0,0,0,0,0,0,0,0,0,0,0,0,0,0,0,0,0,0,0,0,0,0,0,0,0,0,0,0,0,0,0,0,0,0,0,0,0,0,0,0,0,0,0,0],"id":16,"left_children":[1,3,5,7,9,11,13,15,17,-1,19,21,23,25,27,29,31,33,35,37,39,41,43,-1,45,47,49,51,53,55,57,-1,-1,59,-1,61,63,65,-1,-1,67,69,71,73,75,77,79,81,83,-1,-1,85,87,89,91,-1,-1,-1,-1,-1,-1,-1,-1,-1,-1,-1,-1,-1,-1,-1,-1,-1,-1,-1,-1,-1,-1,-1,-1,-1,-1,-1,-1,-1,-1,-1,-1,-1,-1,-1,-1,-1,-1],"loss_changes":[6.685632E0,3.364056E1,1.3346806E1,7.0760717E0,4.5666912E1,1.5623207E1,1.5710937E1,2.1390356E1,1.6978048E1,0E0,1.9204224E1,1.182579E1,2.3881264E1,1.0349478E1,7.51155E1,1.4081163E1,1.2499493E1,2.823651E1,1.0346443E1,4.8064247E1,3.7427115E0,9.06025E0,1.582576E1,0E0,5.47509E0,7.678809E0,2.8804874E-1,6.465599E1,1.3209054E1,4.1690174E1,1.4608758E1,0E0,0E0,3.3078747E1,0E0,3.8610573E1,1.3244873E1,6.4209003E0,0E0,0E0,6.389959E-1,8.361377E0,2.4264493E0,5.8402443E0,1.4884882E0,1.9738345E0,8.184437E0,4.7116722E1,1.457172E1,0E0,0E0,9.777304E1,1.0721481E1,1.476598E1,7.8448877E0,0E0,0E0,0E0,0E0,0E0,0E0,0E0,0E0,0E0,0E0,0E0,0E0,0E0,0E0,0E0,0E0,0E0,0E0,0E0,0E0,0E0,0E0,0E0,0E0,0E0,0E0,0E0,0E0,0E0,0E0,0E0,0E0,0E0,0E0,0E0,0E0,0E0,0E0],"parents":[2147483647,0,0,1,1,2,2,3,3,4,4,5,5,6,6,7,7,8,8,10,10,11,11,12,12,13,13,14,14,15,15,16,16,17,17,18,18,19,19,20,20,21,21,22,22,24,24,25,25,26,26,27,27,28,28,29,29,30,30,33,33,35,35,36,36,37,37,40,40,41,41,42,42,43,43,44,44,45,45,46,46,47,47,48,48,51,51,52,52,53,53,54,54],"right_children":[2,4,6,8,10,12,14,16,18,-1,20,22,24,26,28,30,32,34,36,38,40,42,44,-1,46,48,50,52,54,56,58,-1,-1,60,-1,62,64,66,-1,-1,68,70,72,74,76,78,80,82,84,-1,-1,86,88,90,92,-1,-1,-1,-1,-1,-1,-1,-1,-1,-1,-1,-1,-1,-1,-1,-1,-1,-1,-1,-1,-1,-1,-1,-1,-1,-1,-1,-1,-1,-1,-1,-1,-1,-1,-1,-1,-1,-1],"split_conditions":[2.6530338E2,2.6433112E2,2.716352E2,1.0041354E1,9.220499E0,8.808333E0,6.49375E0,1.000256E1,1.044E1,1.7744288E0,2.2065973E1,4.4854164E0,9.064582E0,3.5290533E2,8.808333E0,2.3111255E2,2.166562E2,2.3991325E2,-2.0541668E0,2.1109941E1,2E-1,1.9171478E1,1.2000002E0,1.0234972E0,1.6299997E1,1.4973576E1,2.3928492E1,1E-1,9.777083E0,2.1921191E2,8.694204E0,-6.353604E-1,2.8370965E-1,1E-1,-6.2754905E-1,-2.3270833E0,-4.020834E-1,1.1440979E1,1.8182349E0,-4.9242008E-1,2.6499002E2,2.3125002E0,2.6999998E0,2.342491E1,3.6999998E0,1.3000001E0,1.5990646E1,1.1000001E0,2.3006226E1,-4.2504236E-1,-9.924469E-2,6.737499E0,1.9483284E1,2.0696085E1,3.1999998E0,-4.0552955E-2,5.68452E-1,3.6676645E-2,-4.9184433E-1,6.7900354E-1,-4.2720765E-2,-4.598282E-2,-1.0181763E0,1.9939451E-1,9.8894015E-3,-2.2992502E-1,2.9600018E-1,-9.869811E-2,7.119273E-2,8.707742E-3,6.956393E-1,-3.3652148E-1,-3.9273586E-2,-6.806283E-1,-8.114888E-2,-1.7886678E-2,-2.1404098E-1,-2.4440996E-1,-4.4597313E-2,3.654005E-1,-6.5601856E-2,-8.081584E-2,7.502506E-1,-1.975045E-1,5.3165995E-2,-3.0201608E-1,1.3656735E0,2.8537503E-1,-7.2050035E-2,-3.512689E-1,3.846307E-1,-2.8780278E-2,9.2870355E-2],"split_indices":[3,3,3,2,2,0,0,2,2,0,2,0,0,3,0,3,3,3,0,2,1,2,1,0,0,2,2,1,0,3,2,0,0,1,0,0,0,2,0,0,3,0,1,2,1,1,2,1,2,0,0,0,2,2,1,0,0,0,0,0,0,0,0,0,0,0,0,0,0,0,0,0,0,0,0,0,0,0,0,0,0,0,0,0,0,0,0,0,0,0,0,0,0],"split_type":[0,0,0,0,0,0,0,0,0,0,0,0,0,0,0,0,0,0,0,0,0,0,0,0,0,0,0,0,0,0,0,0,0,0,0,0,0,0,0,0,0,0,0,0,0,0,0,0,0,0,0,0,0,0,0,0,0,0,0,0,0,0,0,0,0,0,0,0,0,0,0,0,0,0,0,0,0,0,0,0,0,0,0,0,0,0,0,0,0,0,0,0,0],"sum_hessian":[2.321E3,1.694E3,6.27E2,1.676E3,1.8E1,8.2E1,5.45E2,1.61E2,1.515E3,1E0,1.7E1,4.7E1,3.5E1,1.58E2,3.87E2,1.53E2,8E0,2.4E1,1.491E3,1E1,7E0,2E1,2.7E1,1E0,3.4E1,1.5E2,8E0,4.3E1,3.44E2,1.35E2,1.8E1,7E0,1E0,2.2E1,2E0,5E1,1.441E3,9E0,1E0,1E0,6E0,9E0,1.1E1,1.3E1,1.4E1,1.8E1,1.6E1,5.5E1,9.5E1,7E0,1E0,1.4E1,2.9E1,1.9E1,3.25E2,1.25E2,1E1,8E0,1E1,1.2E1,1E1,4.7E1,3E0,3.3E1,1.408E3,2E0,7E0,3E0,3E0,8E0,1E0,7E0,4E0,1.1E1,2E0,6E0,8E0,9E0,9E0,5E0,1.1E1,4.9E1,6E0,6.5E1,3E1,4E0,1E1,1.6E1,1.3E1,1.7E1,2E0,2.68E2,5.7E1],"tree_param":{"num_deleted":"0","num_feature":"4","num_nodes":"93","size_leaf_vector":"1"}},{"base_weights":[6.603424E-3,4.6888445E-2,-5.183382E-2,-2.006443E-1,1.1973027E-1,1.30467E-1,-1.4537294E-1,-5.514945E-1,-4.0533345E-2,3.0323627E0,9.755149E-2,8.0211854E-1,2.9613495E-2,-2.2578405E-1,2.3461187E-1,-2.6663738E-1,-3.0315733E0,2.489637E0,-1.3718803E-1,3.8589637E0,-4.130768E-1,1.953403E-1,-5.7001963E-2,1.4138887E0,-8.4513086E-1,-4.3052128E-1,2.3475252E-1,-1.1276325E0,-1.873009E-1,1.2278176E-3,1.5112877E0,-3.7808853E-1,1.4311594E0,-4.1211314E0,-3.669535E-1,-3.9777097E-1,3.2241287E0,-1.836137E-1,2.288031E0,4.6664944E0,-1.479332E-1,1.6714783E0,1.6481254E-1,1.1840118E-1,-2.5873855E-1,8.0601996E-1,4.413602E0,-6.0441345E-1,-2.314139E-1,-8.1557505E-2,-1.3431529E0,5.218878E-1,-1.589949E-1,-2.0017223E0,-4.3575257E-1,-2.0809601E-1,4.5215768E-1,1.09614775E-1,-1.0346062E0,1.8375567E0,-6.238196E-1,-7.403639E-2,-9.2211103E-1,-2.94472E-1,-1.554192E0,-1.5856648E-2,-1.3621031E-1,1.528403E0,4.370923E-1,-9.966904E-2,1.7339462E-1,1.0199046E0,-1.5703805E-1,8.049488E-2,1.6477401E0,1.134763E0,-3.622656E-2,